tree
version=v4
num_class=1
num_tree_per_iteration=1
label_index=0
max_feature_idx=13
objective=binary sigmoid:1
feature_names=market_price_stress_pct market_risk_score market_volatility_90d market_momentum_3m market_risk_level macro_policy_rate macro_rate_change_12m macro_rate_cycle macro_credit_stress_score macro_credit_environment recovery_level_pct recovery_months full_recovery recovery_status
feature_infos=[0:48.799999999999997] [10:80] [10.800000000000001:107.09999999999999] [-22.399999999999999:25.5] [0:5] [0.5:5.25] [-2.25:4] [0:6] [4:96] [0:3] [0:3782.4000000000001] [0:88] [0:1] [0:6]
tree_sizes=453 566 459 564 654 663 667 666 773 769 769 768 669 670 774 773 771 771 775 772 778 772 777 773 776 779 780 782 877 778 779 780 783 777 675 779 675 785 890 785 887 894 779 893 780 780 676 888 888 888 786 782 682 786 679 892 896 781 883 895 885 894 884 888 766 895 890 893 891 892 794 796 793 797 787 903 897 903 902 900 796 898 790 794 794 900 903 795 906 796 1015 1010 905 1012 1015 796 797 797 797 796

Tree=0
num_leaves=3
num_cat=0
split_feature=13 0
split_gain=34.1193 1.77636e-15
threshold=5.5000000000000009 12.450000000000001
decision_type=2 2
left_child=-1 -2
right_child=1 -3
leaf_value=-0.05796317448095803 -0.2593617765091551 -0.2593617765091551
leaf_weight=3.9722223281860352 2.9791667461395264 1.489583373069763
leaf_count=16 12 6
internal_value=-0.164586 -0.259362
internal_weight=8.44097 4.46875
internal_count=34 18
is_linear=0
shrinkage=1


Tree=1
num_leaves=4
num_cat=0
split_feature=13 0 0
split_gain=30.8243 1.77636e-15 8.88178e-16
threshold=5.5000000000000009 10.350000000000001 2.1000000000000005
decision_type=2 2 2
left_child=-1 2 -2
right_child=1 -3 -4
leaf_value=0.10298379801578844 -0.088577187639503729 -0.088577187639503785 -0.088577187639503757
leaf_weight=3.9966421127319336 1.2292120605707171 1.9667392969131468 1.2292120605707166
leaf_count=16 5 8 5
internal_value=0.00232977 -0.0885772 -0.0885772
internal_weight=8.42181 4.42516 2.45842
internal_count=34 18 10
is_linear=0
shrinkage=0.05


Tree=2
num_leaves=3
num_cat=0
split_feature=13 1
split_gain=27.9898 1.77636e-15
threshold=5.5000000000000009 36.500000000000007
decision_type=2 2
left_child=1 -1
right_child=-2 -3
leaf_value=0.097798883611734597 -0.085307102746708899 0.097798883611734624
leaf_weight=1.749113589525223 4.3665072619915009 2.2488603293895721
leaf_count=7 18 9
internal_value=0.00221213 0.0977989
internal_weight=8.36448 3.99797
internal_count=34 16
is_linear=0
shrinkage=0.05


Tree=3
num_leaves=4
num_cat=0
split_feature=13 0 13
split_gain=25.527 1.77636e-15 1.77636e-15
threshold=5.5000000000000009 12.450000000000001 4.5000000000000009
decision_type=2 2 2
left_child=2 -2 -1
right_child=1 -3 -4
leaf_value=0.093345524037840244 -0.082420044903417172 -0.082420044903417145 0.093345524037840175
leaf_weight=2.7360243052244186 2.8635131120681763 1.4317565560340879 1.2436474114656451
leaf_count=11 12 6 5
internal_value=0.00211098 -0.08242 0.0933455
internal_weight=8.27494 4.29527 3.97967
internal_count=34 18 16
is_linear=0
shrinkage=0.05


Tree=4
num_leaves=5
num_cat=0
split_feature=1 2 0 7
split_gain=5.84245 1.74577 1.9687 1.08428
threshold=52.000000000000007 15.350000000000003 10.350000000000001 3.5000000000000004
decision_type=2 2 2 2
left_child=1 -1 3 -3
right_child=-2 2 -4 -5
leaf_value=-0.060155144260442883 0.071516957912533152 -0.010002620560557611 -0.05039173451710232 0.056997803527251506
leaf_weight=2.1192684322595596 2.2064605355262756 1.1953633725643165 1.4169976264238355 1.2202754020690916
leaf_count=9 9 5 6 5
internal_value=0.00202317 -0.0237392 -0.00360293 0.0238431
internal_weight=8.15837 5.9519 3.83264 2.41564
internal_count=34 25 16 10
is_linear=0
shrinkage=0.05


Tree=5
num_leaves=5
num_cat=0
split_feature=13 1 3 2
split_gain=24.354 0.00362266 0.00172883 2.15919e-05
threshold=5.5000000000000009 52.000000000000007 4.5500000000000007 16.450000000000006
decision_type=2 2 2 2
left_child=1 -1 3 -2
right_child=2 -3 -4 -5
leaf_value=0.089795146828126865 -0.07811214598176966 0.08675745046282779 -0.08021684490179648 -0.078387960455208239
leaf_weight=1.9725835025310519 1.151852533221245 1.9534028768539426 1.8770132213830946 1.8479722738265989
leaf_count=8 5 8 8 8
internal_value=-0.00440766 0.0882837 -0.0790267 -0.0782821
internal_weight=8.80282 3.92599 4.87684 2.99982
internal_count=37 16 21 13
is_linear=0
shrinkage=0.05


Tree=6
num_leaves=5
num_cat=0
split_feature=10 2 0 2
split_gain=17.8805 0.806313 0.0030558 0.000284288
threshold=1.0000000180025095e-35 19.850000000000005 30.000000000000004 15.350000000000003
decision_type=2 2 2 2
left_child=1 3 -2 -1
right_child=2 -3 -4 -5
leaf_value=-0.075990710901199812 0.086704790514893548 -0.035553691439603512 0.083702889454824625 -0.076925393646506163
leaf_weight=1.3502628058195116 1.7075455188751223 1.8534520119428632 1.6836595088243482 2.0465629100799561
leaf_count=6 7 8 7 9
internal_value=-0.00427677 -0.06208 0.0852144 -0.0765539
internal_weight=8.64148 5.25028 3.39121 3.39683
internal_count=37 23 14 15
is_linear=0
shrinkage=0.05


Tree=7
num_leaves=5
num_cat=0
split_feature=13 0 3 1
split_gain=20.9453 0.00335517 0.00142738 0.000126583
threshold=5.5000000000000009 30.000000000000004 4.5500000000000007 34.104838709677431
decision_type=2 2 2 2
left_child=1 -1 3 -2
right_child=2 -3 -4 -5
leaf_value=0.083987317168170553 -0.074200922584088336 0.080996697175208632 -0.076260019552748581 -0.074883059753868372
leaf_weight=2.1665821373462681 1.758205831050873 1.6536699831485746 1.8037549108266828 1.1091205030679701
leaf_count=9 8 7 8 5
internal_value=-0.00414093 0.0826928 -0.075158 -0.0744648
internal_weight=8.49133 3.82025 4.67108 2.86733
internal_count=37 16 21 13
is_linear=0
shrinkage=0.05


Tree=8
num_leaves=6
num_cat=0
split_feature=10 2 0 3 2
split_gain=15.1756 0.730787 0.00183094 0.00031731 7.89901e-06
threshold=1.0000000180025095e-35 19.850000000000005 30.000000000000004 4.5500000000000007 16.450000000000006
decision_type=2 2 2 2 2
left_child=1 3 -2 4 -1
right_child=2 -3 -4 -5 -6
leaf_value=-0.072370912320107131 0.080950821307330584 -0.033065244422362118 0.078585057234590514 -0.073516230715622063 -0.072563075867748225
leaf_weight=1.0678139626979835 1.6516482532024386 1.8013883084058759 1.6200452148914335 1.0870877206325529 1.0712895691394804
leaf_count=5 7 8 7 5 5
internal_value=-0.00403446 -0.0585762 0.0797794 -0.0728206 -0.0724672
internal_weight=8.29927 5.02758 3.27169 3.22619 2.1391
internal_count=37 23 14 15 10
is_linear=0
shrinkage=0.05


Tree=9
num_leaves=6
num_cat=0
split_feature=13 10 3 0 0
split_gain=18.1829 0.00409385 0.00117058 0.00025108 0.000196587
threshold=5.5000000000000009 44.800000000000004 4.5500000000000007 38.900000000000006 12.450000000000001
decision_type=2 2 2 2 2
left_child=1 -1 4 -3 -2
right_child=2 3 -4 -5 -6
leaf_value=0.080384107923647141 -0.070870320233064318 0.077475387571503046 -0.07299818982165017 0.076424691790021537 -0.071722994682860822
leaf_weight=1.4071301817893984 1.2465744614601137 1.1433666199445727 1.7221493273973463 1.1310519278049467 1.4767765700817106
leaf_count=6 6 5 8 5 7
internal_value=-0.00391825 0.0782643 -0.0719779 0.0769529 -0.0713327
internal_weight=8.12705 3.68155 4.4455 2.27442 2.72335
internal_count=37 16 21 10 13
is_linear=0
shrinkage=0.05


Tree=10
num_leaves=6
num_cat=0
split_feature=13 13 7 3 8
split_gain=14.3125 0.00327296 0.00106876 0.000366406 0.000175274
threshold=5.5000000000000009 4.5000000000000009 1.5000000000000002 -9.8999999999999968 23.500000000000004
decision_type=2 2 2 2 2
left_child=1 3 -2 -1 -4
right_child=2 -3 4 -5 -6
leaf_value=0.074355506420570636 -0.071784598244789652 0.078288192976236737 -0.069363436765283962 0.075640165813300408 -0.070253257699643648
leaf_weight=1.1013009995222094 1.0533239245414736 1.1512315869331362 1.0061285197734835 1.119010806083679 1.22993828356266
leaf_count=5 5 5 5 5 6
internal_value=0.00373066 0.0761247 -0.0704715 0.075003 -0.0698529
internal_weight=6.66093 3.37154 3.28939 2.22031 2.23607
internal_count=31 15 16 10 11
is_linear=0
shrinkage=0.05


Tree=11
num_leaves=6
num_cat=0
split_feature=13 13 7 1 5
split_gain=13.2981 0.00260382 0.000866787 0.000246008 2.69276e-05
threshold=5.5000000000000009 4.5000000000000009 1.5000000000000002 61.000000000000007 3.2500000000000004
decision_type=2 2 2 2 2
left_child=1 3 -2 -1 -4
right_child=2 -3 4 -5 -6
leaf_value=0.073726502553761231 -0.070279830947105715 0.076163307594588753 -0.068352399136115516 0.072659953633775934 -0.068706198242326974
leaf_weight=1.0897682160139086 1.0228553116321566 1.124849393963814 1.177721828222275 1.073015972971916 0.98979245126247395
leaf_count=5 5 5 6 5 5
internal_value=0.00364175 0.0742121 -0.0690801 0.0731974 -0.068514
internal_weight=6.478 3.28763 3.19037 2.16278 2.16751
internal_count=31 15 16 10 11
is_linear=0
shrinkage=0.05


Tree=12
num_leaves=5
num_cat=0
split_feature=10 2 0 2
split_gain=9.09809 0.812341 0.0005923 7.81638e-05
threshold=1.0000000180025095e-35 19.850000000000005 25.500000000000004 15.350000000000003
decision_type=2 2 2 2
left_child=1 3 -2 -1
right_child=2 -3 -4 -5
leaf_value=-0.066834350071339352 0.072509590481966008 -0.017164142580476573 0.071035452560635301 -0.067428612855554196
leaf_weight=0.94218072295188982 1.4971496164798739 1.2595705240964887 1.2505967020988462 1.3407448530197141
leaf_count=5 7 6 6 7
internal_value=0.00356113 -0.0493985 0.0718387 -0.0671834
internal_weight=6.29024 3.5425 2.74775 2.28293
internal_count=31 18 13 12
is_linear=0
shrinkage=0.05


Tree=13
num_leaves=5
num_cat=0
split_feature=10 2 0 2
split_gain=8.44652 0.791242 0.0004776 6.39522e-05
threshold=1.0000000180025095e-35 19.850000000000005 25.500000000000004 15.350000000000003
decision_type=2 2 2 2
left_child=1 3 -2 -1
right_child=2 -3 -4 -5
leaf_value=-0.065746020209651965 0.070936356729713587 -0.016355433050319459 0.069593041320459487 -0.066292704062099653
leaf_weight=0.91068676114082414 1.4549065530300143 1.2558553814887998 1.2136283814907072 1.2966502010822294
leaf_count=5 7 6 6 7
internal_value=0.00347265 -0.0480402 0.0703254 -0.0660672
internal_weight=6.13173 3.46319 2.66853 2.20734
internal_count=31 18 13 12
is_linear=0
shrinkage=0.05


Tree=14
num_leaves=6
num_cat=0
split_feature=13 13 2 3 2
split_gain=11.0898 0.00499886 0.00330135 0.000156249 1.65259e-05
threshold=5.5000000000000009 4.5000000000000009 19.150000000000002 -9.8999999999999968 15.350000000000003
decision_type=2 2 2 2 2
left_child=1 3 4 -1 -2
right_child=2 -3 -4 -5 -6
leaf_value=0.068263541099430544 -0.064744081371104642 0.072960370136139804 -0.068461119332514503 0.069151996650188827 -0.065036875185986387
leaf_weight=0.97980770468711853 0.87933567166328463 1.0650749653577805 0.981691613793373 0.99984867870807648 1.0663419216871259
leaf_count=5 5 5 5 5 6
internal_value=0.00338975 0.0701983 -0.0660972 0.0687123 -0.0649045
internal_weight=5.9721 3.04473 2.92737 1.97966 1.94568
internal_count=31 15 16 10 11
is_linear=0
shrinkage=0.05


Tree=15
num_leaves=6
num_cat=0
split_feature=13 2 10 2 3
split_gain=12.5464 0.00434081 0.00386618 7.70101e-05 5.6181e-05
threshold=5.5000000000000009 19.850000000000005 44.800000000000004 23.650000000000002 4.5500000000000007
decision_type=2 2 2 2 2
left_child=2 4 -1 -4 -2
right_child=1 -3 3 -5 -6
leaf_value=0.070974025083041889 -0.06389093166251035 -0.067588748311059071 0.067698762901949663 0.067064255355335542 -0.064367212179595776
leaf_weight=1.2336950302124026 1.5313132256269462 1.3455076962709425 0.96444307267665841 0.94850938022136688 1.0394435822963712
leaf_count=6 9 7 5 5 6
internal_value=-0.00555314 -0.0652878 0.0687916 0.0673842 -0.0640835
internal_weight=7.06291 3.91626 3.14665 1.91295 2.57076
internal_count=38 22 16 10 15
is_linear=0
shrinkage=0.05


Tree=16
num_leaves=6
num_cat=0
split_feature=13 2 10 2 2
split_gain=11.7345 0.0035632 0.00316541 6.30156e-05 4.45047e-05
threshold=5.5000000000000009 19.850000000000005 44.800000000000004 23.650000000000002 15.350000000000003
decision_type=2 2 2 2 2
left_child=2 4 -1 -4 -2
right_child=1 -3 3 -5 -6
leaf_value=0.069551628543311442 -0.06298089170996711 -0.066440417688483563 0.066541050715587455 0.065957392786473446 -0.063405873864704948
leaf_weight=1.1969116032123568 1.145384997129441 1.3014420121908186 0.93295995891094186 0.91700419783592224 1.3329464197158811
leaf_count=6 7 7 5 5 8
internal_value=-0.00546562 -0.0643219 0.067548 0.0662517 -0.0632095
internal_weight=6.82665 3.77977 3.04688 1.84996 2.47833
internal_count=38 22 16 10 15
is_linear=0
shrinkage=0.05


Tree=17
num_leaves=6
num_cat=0
split_feature=13 2 10 2 3
split_gain=10.9872 0.00293381 0.00260104 5.1741e-05 3.9206e-05
threshold=5.5000000000000009 19.850000000000005 44.800000000000004 23.650000000000002 4.5500000000000007
decision_type=2 2 2 2 2
left_child=2 4 -1 -4 -2
right_child=1 -3 3 -5 -6
leaf_value=0.068250982271190294 -0.062233462078040563 -0.065384659640979059 0.065476942744972857 0.064938850053336897 -0.06264630246580237
leaf_weight=1.1596789956092837 1.4213880896568305 1.2574486732482908 0.9015131890773771 0.88561345636844635 0.96585753560066212
leaf_count=6 9 7 5 5 6
internal_value=-0.00538495 -0.0634301 0.0664069 0.0652103 -0.0624005
internal_weight=6.5915 3.64469 2.94681 1.78713 2.38725
internal_count=38 22 16 10 15
is_linear=0
shrinkage=0.05


Tree=18
num_leaves=6
num_cat=0
split_feature=13 2 10 2 3
split_gain=10.2978 0.00242241 0.00214434 4.26161e-05 3.25405e-05
threshold=5.5000000000000009 19.850000000000005 44.800000000000004 23.650000000000002 4.5500000000000007
decision_type=2 2 2 2 2
left_child=2 4 -1 -4 -2
right_child=1 -3 3 -5 -6
leaf_value=0.067058448579449606 -0.061495339879880519 -0.064411861248042143 0.064496671382830453 0.063999568871240947 -0.061878693434128267
leaf_weight=1.1222364008426668 1.367881745100022 1.2137258946895597 0.87024687230586983 0.85446980595588684 0.92985902726650227
leaf_count=6 9 7 5 5 6
internal_value=-0.00531044 -0.0626049 0.0653573 0.0642504 -0.0616505
internal_weight=6.35842 3.51147 2.84695 1.72472 2.29774
internal_count=38 22 16 10 15
is_linear=0
shrinkage=0.05


Tree=19
num_leaves=6
num_cat=0
split_feature=13 2 10 2 2
split_gain=9.66063 0.00200534 0.00177314 3.52008e-05 2.63508e-05
threshold=5.5000000000000009 19.850000000000005 44.800000000000004 23.650000000000002 15.350000000000003
decision_type=2 2 2 2 2
left_child=2 4 -1 -4 -2
right_child=1 -3 3 -5 -6
leaf_value=0.065962343311764288 -0.060767639592201994 -0.063513668352679103 0.06359177661246683 0.063131675788546754 -0.06111395434806538
leaf_weight=1.0847899317741396 1.0205615907907493 1.1704424917697904 0.83928343653678872 0.82368576526641846 1.1894546151161192
leaf_count=6 7 7 5 5 8
internal_value=-0.00524149 -0.0618403 0.0643897 0.0633639 -0.060954
internal_weight=6.12822 3.38046 2.74776 1.66297 2.21002
internal_count=38 22 16 10 15
is_linear=0
shrinkage=0.05


Tree=20
num_leaves=6
num_cat=0
split_feature=13 10 2 13 5
split_gain=9.04091 0.00500228 0.00129758 0.000120575 1.87479e-05
threshold=5.5000000000000009 22.750000000000004 21.200000000000006 1.5000000000000002 3.7500000000000004
decision_type=2 2 2 2 2
left_child=1 -1 4 -3 -2
right_child=2 3 -4 -5 -6
leaf_value=0.067006422218431103 -0.060134188733961105 0.062310484685968552 -0.062575207108610073 0.063048137768392937 -0.060470827767571414
leaf_weight=0.92116764187812838 0.98086522519588493 1.2682045400142672 0.96173247694969166 0.98366679251193989 0.71511544287204742
leaf_count=5 7 8 6 6 5
internal_value=0.00692144 0.0639024 -0.0611081 0.0626327 -0.0602761
internal_weight=5.83075 3.17304 2.65771 2.25187 1.69598
internal_count=37 19 18 14 12
is_linear=0
shrinkage=0.05


Tree=21
num_leaves=6
num_cat=0
split_feature=13 10 2 13 2
split_gain=8.492 0.0041541 0.00107932 9.99524e-05 1.21249e-05
threshold=5.5000000000000009 22.750000000000004 21.200000000000006 1.5000000000000002 15.350000000000003
decision_type=2 2 2 2 2
left_child=1 -1 4 -3 -2
right_child=2 3 -4 -5 -6
leaf_value=0.065922489042404442 -0.059537493822549761 0.061566838990424623 -0.061813089097415758 0.06225130365228685 -0.059810318234236631
leaf_weight=0.89028137922287021 0.80717787146568321 1.2205536216497423 0.92582027614116658 0.94736482203006733 0.82192321121692657
leaf_count=5 6 8 6 6 6
internal_value=0.00683492 0.0630469 -0.0604499 0.0618659 -0.0596751
internal_weight=5.61312 3.0582 2.55492 2.16792 1.6291
internal_count=37 19 18 14 12
is_linear=0
shrinkage=0.05


Tree=22
num_leaves=6
num_cat=0
split_feature=13 10 1 1 5
split_gain=7.98253 0.00345806 0.000523711 8.38462e-05 5.77859e-05
threshold=5.5000000000000009 22.750000000000004 34.104838709677431 52.000000000000007 3.2500000000000004
decision_type=2 2 2 2 2
left_child=1 -1 4 -3 -2
right_child=2 3 -4 -5 -6
leaf_value=0.064922921977045397 -0.058986232164680047 0.061513961564942432 -0.060820439188592063 0.060874842378368266 -0.059590751496824003
leaf_weight=0.85956753790378604 0.77480471134185813 0.9118093550205234 0.87265597283840168 1.1737662702798841 0.80710919201374054
leaf_count=5 6 6 6 8 6
internal_value=0.00675464 0.0622542 -0.0598371 0.0611543 -0.0592947
internal_weight=5.39971 2.94514 2.45457 2.08558 1.58191
internal_count=37 19 18 14 12
is_linear=0
shrinkage=0.05


Tree=23
num_leaves=6
num_cat=0
split_feature=13 10 2 13 2
split_gain=7.509 0.00288502 0.000757439 7.00016e-05 8.17188e-06
threshold=5.5000000000000009 22.750000000000004 21.200000000000006 1.5000000000000002 15.350000000000003
decision_type=2 2 2 2 2
left_child=1 -1 4 -3 -2
right_child=2 3 -4 -5 -6
leaf_value=0.063999298635745244 -0.058471498531574545 0.060232246635680747 -0.060452896010188911 0.060827815209302798 -0.05870488962046129
leaf_weight=0.82914507389068637 0.74334037303924583 1.1281000077724459 0.8564278483390807 0.87690426409244526 0.75699950009584427
leaf_count=5 6 8 6 6 6
internal_value=0.00668004 0.0615186 -0.0592665 0.0604927 -0.0585893
internal_weight=5.19092 2.83415 2.35677 2.005 1.50034
internal_count=37 19 18 14 12
is_linear=0
shrinkage=0.05


Tree=24
num_leaves=6
num_cat=0
split_feature=13 10 2 1 5
split_gain=7.0682 0.00241185 0.000633654 5.89207e-05 9.04339e-06
threshold=5.5000000000000009 22.750000000000004 21.200000000000006 52.000000000000007 3.7500000000000004
decision_type=2 2 2 2 2
left_child=1 -1 4 -3 -2
right_child=2 3 -4 -5 -6
leaf_value=0.063144278045511509 -0.057993483516364533 0.060190467280007404 -0.059840185027583037 0.059633046291358287 -0.058247301472191516
leaf_weight=0.79911471903324161 0.83184200525283836 0.84284962713718403 0.82278871536254872 1.0834847837686536 0.60702486336231232
leaf_count=5 7 6 6 8 5
internal_value=0.00661059 0.0608349 -0.0587334 0.0598769 -0.0581006
internal_weight=4.9871 2.72545 2.26166 1.92633 1.43887
internal_count=37 19 18 14 12
is_linear=0
shrinkage=0.05


Tree=25
num_leaves=6
num_cat=0
split_feature=13 10 2 4 2
split_gain=6.21761 0.000968362 0.000555596 1.65067e-05 2.10561e-06
threshold=5.5000000000000009 22.750000000000004 19.850000000000005 1.5000000000000002 15.350000000000003
decision_type=2 2 2 2 2
left_child=1 -1 3 -2 -5
right_child=2 -3 -4 4 -6
leaf_value=0.061719118836782452 -0.057899088810528791 0.059365012391432603 -0.059260380216572199 -0.057527925638786608 -0.057653583995904846
leaf_weight=0.7423577308654784 0.70566938817501146 1.0614677369594572 0.78956957161426533 0.56866039335727669 0.80574431270360947
leaf_count=5 6 8 6 5 7
internal_value=-0.0124071 0.0603338 -0.0581312 -0.0577025 -0.0576016
internal_weight=4.67347 1.80383 2.86964 2.08007 1.3744
internal_count=37 13 24 18 12
is_linear=0
shrinkage=0.05


Tree=26
num_leaves=6
num_cat=0
split_feature=13 6 2 4 2
split_gain=5.86139 0.000702042 0.000466292 1.38972e-05 1.7714e-06
threshold=5.5000000000000009 0.62500000000000011 19.850000000000005 1.5000000000000002 15.350000000000003
decision_type=2 2 2 2 2
left_child=1 -1 3 -2 -5
right_child=2 -3 -4 4 -6
leaf_value=0.058750219196425535 -0.057454963116350156 0.060763679789904851 -0.058727915564740676 -0.057107084632171026 -0.057224832369690427
leaf_weight=0.88651288300752618 0.67631063610315356 0.84614474326372147 0.75769846886396397 0.54481168836355187 0.7720445990562439
leaf_count=7 6 6 6 5 7
internal_value=-0.0123007 0.0597335 -0.0576721 -0.0572707 -0.0571761
internal_weight=4.48352 1.73266 2.75087 1.99317 1.31686
internal_count=37 13 24 18 12
is_linear=0
shrinkage=0.05


Tree=27
num_leaves=6
num_cat=0
split_feature=13 6 2 4 7
split_gain=5.52843 0.000592138 0.000391907 1.17152e-05 1.78453e-06
threshold=5.5000000000000009 0.62500000000000011 19.850000000000005 1.5000000000000002 3.5000000000000004
decision_type=2 2 2 2 2
left_child=1 -1 3 -2 -5
right_child=2 -3 -4 4 -6
leaf_value=0.058251101334400902 -0.057038922747435099 0.060138345658177141 -0.058230430312527594 -0.056847243698434885 -0.056726736094110081
leaf_weight=0.85031923651695229 0.64789997786283526 0.81303437799215317 0.72674635797739018 0.52958195656537987 0.73162537813186646
leaf_count=7 6 6 6 5 7
internal_value=-0.0122012 0.0591736 -0.0572423 -0.0568661 -0.0567773
internal_weight=4.29921 1.66335 2.63585 1.90911 1.26121
internal_count=37 13 24 18 12
is_linear=0
shrinkage=0.05


Tree=28
num_leaves=7
num_cat=0
split_feature=11 4 2 2 2 0
split_gain=1.48761 1.08366 0.206741 0.104264 0.0620245 6.83163e-06
threshold=1.0000000180025095e-35 1.0000000180025095e-35 18.600000000000005 14.400000000000002 21.200000000000006 10.350000000000001
decision_type=2 2 2 2 2 2
left_child=1 -1 3 -3 -4 -5
right_child=-2 2 4 5 -6 -7
leaf_value=0.03543653379319802 0.059080559543252455 -0.0297717840380614 -0.0093561291378002308 -0.05660886416138966 -0.032666258537433157 -0.056372157666111603
leaf_weight=0.61552981287241015 0.6229114681482314 0.5210787728428844 0.56584021449089028 0.61794817447662331 0.57574021071195602 0.60155355185270309
leaf_count=5 5 5 5 6 5 6
internal_value=-0.0121081 -0.0247863 -0.0376478 -0.0484928 -0.0211123 -0.0564921
internal_weight=4.1206 3.49769 2.88216 1.74058 1.14158 1.2195
internal_count=37 32 27 17 10 12
is_linear=0
shrinkage=0.05


Tree=29
num_leaves=6
num_cat=0
split_feature=13 10 2 3 2
split_gain=5.05693 0.000544899 0.00042788 3.72241e-06 4.33723e-06
threshold=5.5000000000000009 22.750000000000004 19.150000000000002 -2.4499999999999997 15.350000000000003
decision_type=2 2 2 2 2
left_child=1 -1 3 -2 -5
right_child=2 -3 -4 4 -6
leaf_value=0.059513185644207128 -0.056051072993174855 0.057620561791624926 -0.057564212260081404 -0.056097189205113696 -0.0562986683617578
leaf_weight=0.65111333131790139 0.5777653008699416 0.91435530036687851 0.79544215649366368 0.48430319875478767 0.59561585634946823
leaf_count=5 6 8 7 5 6
internal_value=-0.0118047 0.0584077 -0.0566109 -0.0561535 -0.0562083
internal_weight=4.0186 1.56547 2.45313 1.65768 1.07992
internal_count=37 13 24 17 11
is_linear=0
shrinkage=0.05


Tree=30
num_leaves=6
num_cat=0
split_feature=10 0 1 2 12
split_gain=3.45362 0.373222 0.155863 0.000123724 9.49934e-05
threshold=1.0000000180025095e-35 2.1000000000000005 46.500000000000007 18.600000000000005 1.0000000180025095e-35
decision_type=2 2 2 2 2
left_child=1 -1 3 -3 -2
right_child=4 2 -4 -5 -6
leaf_value=-0.0040803217428517233 0.057531195542917093 -0.055827534227901765 -0.022656037123131967 -0.056806248854185649 0.056749817757424471
leaf_weight=0.67033604532480273 1.0200161710381506 0.84056048840284325 0.46390722692012776 0.524339959025383 0.628715619444847
leaf_count=6 9 9 4 5 6
internal_value=0.00106188 -0.0359954 -0.0476936 -0.0562035 0.0572332
internal_weight=4.14788 2.49914 1.82881 1.3649 1.64873
internal_count=39 24 18 14 15
is_linear=0
shrinkage=0.05


Tree=31
num_leaves=6
num_cat=0
split_feature=13 3 2 0 2
split_gain=5.19482 0.000682506 0.000356715 2.60558e-05 4.99251e-07
threshold=5.5000000000000009 -5.7499999999999991 19.850000000000005 3.8500000000000001 17.850000000000005
decision_type=2 2 2 2 2
left_child=1 -1 3 -2 -5
right_child=2 -3 -4 4 -6
leaf_value=0.056700143843550911 -0.055908392650104992 0.058545020649839956 -0.05714417082971332 -0.055436895371284746 -0.055511824691205483
leaf_weight=0.9350807219743732 0.56664715707302071 1.0807033628225324 0.54385674744844426 0.44221088290214539 0.44704777002334595
leaf_count=9 6 9 5 5 5
internal_value=0.00104574 0.0576892 -0.0560516 -0.0556434 -0.0554746
internal_weight=4.01555 2.01578 1.99976 1.45591 0.889259
internal_count=39 18 21 16 10
is_linear=0
shrinkage=0.05


Tree=32
num_leaves=6
num_cat=0
split_feature=10 3 1 3 11
split_gain=3.05804 0.346378 0.151519 7.02692e-05 6.86268e-05
threshold=1.0000000180025095e-35 8.7500000000000018 46.500000000000007 -1.0499999999999998 1.0000000180025095e-35
decision_type=2 2 2 2 2
left_child=1 2 3 -1 -2
right_child=4 -3 -4 -5 -6
leaf_value=-0.055168350221755848 0.056714210890917431 -0.0034921051223485988 -0.021500710500304668 -0.055918370209042695 0.056020316219539838
leaf_weight=0.59420437365770362 0.9357117637991903 0.63940656185150135 0.44161318242549885 0.65823341906070754 0.57546641677618027
leaf_count=7 9 6 4 7 6
internal_value=0.00103767 -0.0348481 -0.0466831 -0.0555625 0.05645
internal_weight=3.84464 2.33346 1.69405 1.25244 1.51118
internal_count=39 24 18 14 15
is_linear=0
shrinkage=0.05


Tree=33
num_leaves=6
num_cat=0
split_feature=13 10 2 13 3
split_gain=4.71365 0.00139074 0.000270789 6.29516e-05 3.13203e-05
threshold=5.5000000000000009 22.750000000000004 19.850000000000005 1.5000000000000002 3.6500000000000004
decision_type=2 2 2 2 2
left_child=1 -1 4 -3 -2
right_child=2 3 -4 -5 -6
leaf_value=0.058981347853539173 -0.054912291465535612 0.055788580033282055 -0.056491063604977257 0.056510642271281435 -0.055396183702769365
leaf_weight=0.6176491603255273 0.73274978995323159 0.74326477944850899 0.50454358756542217 0.50827458500862122 0.61512169241905212
leaf_count=5 9 8 5 5 7
internal_value=0.00102209 0.0570399 -0.055503 0.0560818 -0.0551331
internal_weight=3.7216 1.86919 1.85242 1.25154 1.34787
internal_count=39 18 21 13 16
is_linear=0
shrinkage=0.05


Tree=34
num_leaves=5
num_cat=0
split_feature=13 3 1 3
split_gain=4.45572 0.000601347 8.02752e-05 4.80247e-05
threshold=5.5000000000000009 -5.7499999999999991 34.104838709677431 3.6500000000000004
decision_type=2 2 2 2
left_child=1 -1 3 -2
right_child=2 -3 -4 -5
leaf_value=0.055653754192815076 -0.054631162328588424 0.057493337709673922 -0.055712868838165924 -0.055260522405345264
leaf_weight=0.81895139813423157 0.54296974092721917 0.97095163911581039 0.54216933995485317 0.68616977334022522
leaf_count=9 7 9 6 8
internal_value=0.00101482 0.0566517 -0.0552061 -0.0549825
internal_weight=3.56121 1.7899 1.77131 1.22914
internal_count=39 18 21 15
is_linear=0
shrinkage=0.05


Tree=35
num_leaves=6
num_cat=0
split_feature=13 10 2 13 3
split_gain=4.11533 0.000769102 0.000214432 2.27203e-05 1.65105e-05
threshold=5.5000000000000009 22.750000000000004 19.850000000000005 1.5000000000000002 3.6500000000000004
decision_type=2 2 2 2 2
left_child=1 -1 4 -3 -2
right_child=2 3 -4 -5 -6
leaf_value=0.057669113078811098 -0.054362112602201397 0.055227315616153155 -0.055746874125257785 0.05571165618755456 -0.054742324470178877
leaf_weight=0.65830393135547638 0.5903407037258146 0.5136532336473465 0.55084008723497402 0.45805638283491135 0.55299415439367294
leaf_count=6 8 6 6 5 7
internal_value=-0.000367426 0.0563496 -0.0549365 0.0554556 -0.054546
internal_weight=3.32419 1.63001 1.69417 0.97171 1.14333
internal_count=38 17 21 11 15
is_linear=0
shrinkage=0.05


Tree=36
num_leaves=5
num_cat=0
split_feature=4 3 3 3
split_gain=0.745795 0.371772 0.299636 0.190099
threshold=1.0000000180025095e-35 8.7500000000000018 -1.0000000180025095e-35 -2.4499999999999997
decision_type=2 2 2 2
left_child=-1 2 3 -2
right_child=1 -3 -4 -5
leaf_value=0.041662779037893047 -0.026902916415667846 0.017940614864908146 -0.054588535294688545 0.01560729463000938
leaf_weight=0.79240249097347293 0.70722731202840838 0.64983167499303807 0.61083541810512532 0.41867216676473606
leaf_count=9 9 7 8 5
internal_value=-0.00036637 -0.0143211 -0.0263925 -0.0110953
internal_weight=3.17897 2.38657 1.73673 1.1259
internal_count=38 29 22 14
is_linear=0
shrinkage=0.05


Tree=37
num_leaves=6
num_cat=0
split_feature=13 10 2 4 3
split_gain=3.80641 0.000629385 0.000190812 2.4034e-05 1.53598e-05
threshold=5.5000000000000009 22.750000000000004 19.850000000000005 1.0000000180025095e-35 3.6500000000000004
decision_type=2 2 2 2 2
left_child=1 -1 4 -3 -2
right_child=2 3 -4 -5 -6
leaf_value=0.057102329222927628 -0.054018304897096206 0.054794625937377175 -0.055370084084753537 0.055309277311371932 -0.054397550456686143
leaf_weight=0.62200348079204559 0.55048316717147805 0.47855184227228165 0.5198781117796899 0.43130426853895187 0.51841010898351669
leaf_count=6 8 6 6 5 7
internal_value=-0.000361164 0.0558766 -0.0545844 0.0550386 -0.0542022
internal_weight=3.12063 1.53186 1.58877 0.909856 1.06889
internal_count=38 17 21 11 15
is_linear=0
shrinkage=0.05


Tree=38
num_leaves=7
num_cat=0
split_feature=13 10 1 3 4 1
split_gain=3.60194 0.000534286 9.45599e-05 3.83615e-05 2.03932e-05 1.13195e-06
threshold=5.5000000000000009 22.750000000000004 34.104838709677431 4.5500000000000007 1.0000000180025095e-35 25.000000000000004
decision_type=2 2 2 2 2 2
left_child=1 -1 3 5 -3 -2
right_child=2 4 -4 -5 -6 -7
leaf_value=0.056712776620099006 -0.05390824503168451 0.054539027023761302 -0.054921584315533734 -0.054476189377661244 0.055023929712891745 -0.053777484058020603
leaf_weight=0.59562908858060837 0.33569385856389977 0.45729196816682816 0.4797993302345277 0.37593454867601395 0.41234305500984192 0.32645288109779358
leaf_count=6 5 6 6 5 5 5
internal_value=-0.0003602 0.0555591 -0.0543411 -0.0540728 0.0547689 -0.0538438
internal_weight=2.98314 1.46526 1.51788 1.03808 0.869635 0.662147
internal_count=38 17 21 15 11 10
is_linear=0
shrinkage=0.05


Tree=39
num_leaves=6
num_cat=0
split_feature=13 10 2 4 0
split_gain=3.40941 0.00045391 0.000138162 1.73173e-05 9.33326e-06
threshold=5.5000000000000009 22.750000000000004 19.850000000000005 1.0000000180025095e-35 10.350000000000001
decision_type=2 2 2 2 2
left_child=1 -1 4 -3 -2
right_child=2 3 -4 -5 -6
leaf_value=0.056346840001834042 -0.053892993891724042 0.05429815099181784 -0.054810868329512652 0.054755260459520561 -0.053574744721284456
leaf_weight=0.57016626745462418 0.60108820721507072 0.43687045574188232 0.47518373280763626 0.39410872012376785 0.37354329600930214
leaf_count=6 9 6 6 5 6
internal_value=-0.000359287 0.0552604 -0.0541118 0.0545149 -0.053771
internal_weight=2.85096 1.40115 1.44982 0.830979 0.974632
internal_count=38 17 21 11 15
is_linear=0
shrinkage=0.05


Tree=40
num_leaves=7
num_cat=0
split_feature=13 10 2 8 0 0
split_gain=3.45738 0.000303945 0.000119369 1.73422e-05 1.3642e-05 4.59004e-07
threshold=5.5000000000000009 22.750000000000004 19.850000000000005 18.000000000000004 2.5500000000000003 12.450000000000001
decision_type=2 2 2 2 2 2
left_child=1 -1 4 -3 -2 -6
right_child=2 3 -4 -5 5 -7
leaf_value=0.055870253117177616 -0.053895863308264708 0.054074298430585033 -0.054592787319209871 0.054504241109685908 -0.053563796109219401 -0.053477280147353527
leaf_weight=0.44289945065975189 0.40162180364131905 0.48694974929094315 0.53410848230123531 0.45248589664697647 0.30987470597028732 0.30342391133308411
leaf_count=5 6 7 7 6 5 5
internal_value=-0.00269151 0.0547905 -0.0539877 0.0542814 -0.0536693 -0.053521
internal_weight=2.93136 1.38234 1.54903 0.939436 1.01492 0.613299
internal_count=41 18 23 13 16 10
is_linear=0
shrinkage=0.05


Tree=41
num_leaves=7
num_cat=0
split_feature=13 10 2 3 11 2
split_gain=3.27445 0.000258967 0.000101555 1.68584e-05 1.28965e-05 1.12055e-06
threshold=5.5000000000000009 22.750000000000004 19.850000000000005 4.5500000000000007 1.0000000180025095e-35 17.850000000000005
decision_type=2 2 2 2 2 2
left_child=1 -1 3 5 -3 -2
right_child=2 4 -4 -5 -6 -7
leaf_value=0.055555241617226525 -0.053236603287081213 0.054199310342614694 -0.054349202833380475 -0.053733030537071069 0.053805782270707293 -0.053375483623995502
leaf_weight=0.42362735420465469 0.28531866520643234 0.56891296058893204 0.51027912646532059 0.38763838261365891 0.3283488005399704 0.29583815485239029
leaf_count=5 5 8 7 6 5 5
internal_value=-0.00268063 0.0545364 -0.0537783 -0.0534776 0.0540553 -0.0533073
internal_weight=2.79996 1.32089 1.47907 0.968795 0.897262 0.581157
internal_count=41 18 23 16 13 10
is_linear=0
shrinkage=0.05


Tree=42
num_leaves=6
num_cat=0
split_feature=13 10 3 1 4
split_gain=3.10192 0.00022077 3.548e-05 2.09935e-05 1.23897e-05
threshold=5.5000000000000009 22.750000000000004 4.5500000000000007 34.104838709677431 1.0000000180025095e-35
decision_type=2 2 2 2 2
left_child=1 -1 3 -2 -3
right_child=2 4 -4 -5 -6
leaf_value=0.055258608076125142 -0.053134406551432645 0.053627977780042024 -0.053875142704604619 -0.053642490516532887 0.054010920056677819
leaf_weight=0.40507521480321884 0.44346984103322029 0.3778759241104126 0.5931132547557354 0.37541558593511581 0.47892110794782639
leaf_count=5 8 6 9 6 7
internal_value=-0.00267036 0.0542968 -0.0535806 -0.0533673 0.053842
internal_weight=2.67387 1.26187 1.412 0.818885 0.856797
internal_count=41 18 23 14 13
is_linear=0
shrinkage=0.05


Tree=43
num_leaves=7
num_cat=0
split_feature=13 10 2 3 4 2
split_gain=2.93911 0.000188308 7.40466e-05 1.21745e-05 1.05465e-05 8.18843e-07
threshold=5.5000000000000009 22.750000000000004 19.850000000000005 4.5500000000000007 1.0000000180025095e-35 17.850000000000005
decision_type=2 2 2 2 2 2
left_child=1 -1 3 5 -3 -2
right_child=2 4 -4 -5 -6 -7
leaf_value=0.054979119715962893 -0.052909741484243614 0.053438582719828313 -0.053904233296739684 -0.053352218330855641 0.053800184436843514 -0.053034172988004259
leaf_weight=0.38722866773605347 0.2596808597445488 0.36068842560052872 0.46559415012598038 0.35307839885354042 0.45730316638946533 0.26935505494475365
leaf_count=5 5 6 7 6 7 5
internal_value=-0.00266068 0.0540708 -0.0533941 -0.0531248 0.0536407 -0.0529731
internal_weight=2.55293 1.20522 1.34771 0.882114 0.817992 0.529036
internal_count=41 18 23 16 13 10
is_linear=0
shrinkage=0.05


Tree=44
num_leaves=6
num_cat=0
split_feature=13 10 3 1 8
split_gain=2.78542 0.000160702 2.5852e-05 1.52214e-05 9.19489e-06
threshold=5.5000000000000009 22.750000000000004 4.5500000000000007 34.104838709677431 18.000000000000004
decision_type=2 2 2 2 2
left_child=1 -1 3 -2 -3
right_child=2 4 -4 -5 -6
leaf_value=0.054715654486128029 -0.052818904903670021 0.053285117235971707 -0.053480996051623778 -0.053272306954883164 0.053628502514107758
leaf_weight=0.37007206305861473 0.40360408648848534 0.4043310172855854 0.54058266803622246 0.34193414449691772 0.3764633983373642
leaf_count=5 8 7 9 6 6
internal_value=-0.00265152 0.0538574 -0.0532177 -0.0530269 0.0534507
internal_weight=2.43699 1.15087 1.28612 0.745538 0.780794
internal_count=41 18 23 14 13
is_linear=0
shrinkage=0.05


Tree=45
num_leaves=6
num_cat=0
split_feature=11 4 5 1 3
split_gain=0.556594 0.482707 0.0988047 0.13531 2.00114e-05
threshold=1.0000000180025095e-35 1.0000000180025095e-35 3.7500000000000004 34.104838709677431 4.5500000000000007
decision_type=2 2 2 2 2
left_child=1 -1 3 4 -3
right_child=-2 2 -4 -5 -6
leaf_value=0.032763389951931753 0.05389595121528238 -0.05266251751172725 -0.012229469515345018 -0.014911109789995472 -0.053207628565650346
leaf_weight=0.36911882087588344 0.30925197154283512 0.33555151522159554 0.47803359851241101 0.35849139466881752 0.33791151642799377
leaf_count=6 5 7 9 6 6
internal_value=-0.00826238 -0.018492 -0.0310215 -0.0397265 -0.052936
internal_weight=2.18836 1.87911 1.50999 1.03195 0.673463
internal_count=39 34 28 19 13
is_linear=0
shrinkage=0.05


Tree=46
num_leaves=5
num_cat=0
split_feature=13 0 1 3
split_gain=2.36257 9.24816e-05 2.84139e-05 2.06731e-05
threshold=5.5000000000000009 25.500000000000004 34.104838709677431 4.5500000000000007
decision_type=2 2 2 2
left_child=1 -1 3 -2
right_child=2 -3 -4 -5
leaf_value=0.053962316938400326 -0.052526311551663554 0.05289565836311564 -0.053293334681776973 -0.053022624956481239
leaf_weight=0.5890057608485223 0.41158526018261909 0.31024619191884995 0.39550225809216499 0.42798950523138046
leaf_count=9 9 6 7 8
internal_value=-0.00805641 0.0535943 -0.0529439 -0.0527793
internal_weight=2.13433 0.899252 1.23508 0.839575
internal_count=39 15 24 17
is_linear=0
shrinkage=0.05


Tree=47
num_leaves=7
num_cat=0
split_feature=13 10 2 13 0 2
split_gain=2.24013 8.75018e-05 5.72917e-05 1.35776e-05 4.29978e-06 7.54561e-07
threshold=5.5000000000000009 22.750000000000004 19.850000000000005 2.5000000000000004 2.5500000000000003 17.850000000000005
decision_type=2 2 2 2 2 2
left_child=1 -1 4 -3 -2 -6
right_child=2 3 -4 -5 5 -7
leaf_value=0.054048198823556895 -0.052695519311700779 0.05273794193235537 -0.053279659043575192 0.053245612367024922 -0.052394542903581712 -0.052518995427662786
leaf_weight=0.32883955538272869 0.28974756225943565 0.24599730595946312 0.39889694005250931 0.28347283974289894 0.26154803112149239 0.2279372327029705
leaf_count=5 6 5 7 5 6 5
internal_value=-0.00803164 0.0534076 -0.0527923 0.0530097 -0.0525429 -0.0524525
internal_weight=2.03644 0.85831 1.17813 0.52947 0.779233 0.489485
internal_count=39 15 24 10 17 11
is_linear=0
shrinkage=0.05


Tree=48
num_leaves=7
num_cat=0
split_feature=13 4 2 13 3 6
split_gain=2.12439 6.71577e-05 4.89204e-05 2.56771e-05 6.82511e-06 4.58125e-07
threshold=5.5000000000000009 1.5000000000000002 19.850000000000005 2.5000000000000004 4.5500000000000007 1.0000000000000002
decision_type=2 2 2 2 2 2
left_child=1 3 4 -1 5 -2
right_child=2 -3 -4 -5 -6 -7
leaf_value=0.052583988275230822 -0.05224769801496864 0.053894039834735279 -0.053109807955275083 0.053261978073157412 -0.052606334335005868 -0.05234766846029424
leaf_weight=0.28021597862243641 0.24680289626121521 0.26048457622528076 0.38062533363699913 0.27838840708136559 0.28228232264518738 0.21393778920173645
leaf_count=6 6 4 7 5 6 5
internal_value=-0.00800821 0.053231 -0.0526489 0.0529219 -0.0524127 -0.0522941
internal_weight=1.94274 0.819089 1.12365 0.558604 0.743023 0.460741
internal_count=39 15 24 11 17 11
is_linear=0
shrinkage=0.05


Tree=49
num_leaves=7
num_cat=0
split_feature=13 10 1 13 0 4
split_gain=2.01494 6.4117e-05 1.77597e-05 9.82746e-06 7.58398e-06 2.42268e-06
threshold=5.5000000000000009 22.750000000000004 34.104838709677431 2.5000000000000004 2.1000000000000005 1.5000000000000002
decision_type=2 2 2 2 2 2
left_child=1 -1 4 -3 -2 -6
right_child=2 3 -4 -5 5 -7
leaf_value=0.053638065398430114 -0.052607549431234857 0.052464254040327389 -0.052809465688250845 0.052917098815118219 -0.052368321547024671 -0.05214661574306248
leaf_weight=0.29987187683582295 0.23431117460131645 0.223722193390131 0.34347662329673767 0.25793658196926117 0.25724827870726585 0.23650456592440605
leaf_count=5 5 5 7 5 6 6
internal_value=-0.00798604 0.0530641 -0.0525131 0.0527068 -0.0523733 -0.0522621
internal_weight=1.85307 0.781531 1.07154 0.481659 0.728064 0.493753
internal_count=39 15 24 10 17 12
is_linear=0
shrinkage=0.05


Tree=50
num_leaves=6
num_cat=0
split_feature=13 10 2 11 2
split_gain=1.70078 0.000106063 3.32438e-05 5.09715e-06 5.60802e-07
threshold=5.5000000000000009 22.750000000000004 19.850000000000005 1.0000000180025095e-35 14.400000000000002
decision_type=2 2 2 2 2
left_child=1 -1 4 -3 -2
right_child=2 3 -4 -5 -6
leaf_value=0.053656740232405145 -0.052130239242129894 0.052676145748374592 -0.052918919703019277 0.052364382499781308 -0.052248577171174072
leaf_weight=0.36124715581536293 0.19540783017873764 0.33494625985622406 0.25758321583271027 0.21542646363377571 0.2052985318005085
leaf_count=6 5 7 5 5 5
internal_value=0.00876704 0.0529911 -0.0524757 0.0525541 -0.0521909
internal_weight=1.56991 0.91162 0.65829 0.550373 0.400706
internal_count=33 18 15 12 10
is_linear=0
shrinkage=0.05


Tree=51
num_leaves=6
num_cat=0
split_feature=13 0 7 5 3
split_gain=1.61336 5.89321e-05 1.98356e-05 1.55394e-05 3.46688e-06
threshold=5.5000000000000009 25.500000000000004 2.5000000000000004 1.7500000000000002 4.5500000000000007
decision_type=2 2 2 2 2
left_child=1 3 -2 -1 -4
right_child=2 -3 4 -5 -6
leaf_value=0.053419488749049782 -0.052708533037570893 0.052320036906357795 -0.051970209345340961 0.052878285518078473 -0.052269237459116685
leaf_weight=0.28182553872466087 0.23832475766539574 0.3372492603957653 0.18212030082941055 0.25054622069001198 0.20721396431326866
leaf_count=5 5 8 5 5 5
internal_value=0.00874307 0.0528372 -0.0523493 0.0531648 -0.0521294
internal_weight=1.49728 0.869621 0.627659 0.532372 0.389334
internal_count=33 18 15 10 10
is_linear=0
shrinkage=0.05


Tree=52
num_leaves=5
num_cat=0
split_feature=10 0 6 4
split_gain=0.858912 0.145151 0.0483383 5.70102e-06
threshold=1.0000000180025095e-35 0.80000000000000016 2.0000000000000004 1.0000000180025095e-35
decision_type=2 2 2 2
left_child=1 -1 -3 -2
right_child=3 2 -4 -5
leaf_value=0.0054324886500158763 0.05215366646594588 -0.052051843491901631 -0.021334833051975369 0.052456635359663828
leaf_weight=0.25397981703281403 0.27658726274967194 0.33642681688070297 0.20681061595678329 0.35401182249188423
leaf_count=5 7 9 4 8
internal_value=0.00872041 -0.0257698 -0.0403579 0.0523238
internal_weight=1.42782 0.797217 0.543237 0.630599
internal_count=33 18 13 15
is_linear=0
shrinkage=0.05


Tree=53
num_leaves=6
num_cat=0
split_feature=10 0 6 11 0
split_gain=0.810557 0.137544 0.0497098 3.70968e-06 3.86608e-06
threshold=1.0000000180025095e-35 0.80000000000000016 2.0000000000000004 1.0000000180025095e-35 25.500000000000004
decision_type=2 2 2 2 2
left_child=1 -1 -3 4 -2
right_child=3 2 -4 -5 -6
leaf_value=0.0051619827304313082 0.052431972036605407 -0.051947886932247368 -0.020432309131905819 0.052020149138998641 0.05212602051145853
leaf_weight=0.25392618402838707 0.22041449695825577 0.32064333185553551 0.2051909975707531 0.18650506064295769 0.19425090029835701
leaf_count=5 5 9 4 5 5
internal_value=0.00857813 -0.0250571 -0.0396499 0.0522054 0.0522886
internal_weight=1.38093 0.779761 0.525834 0.60117 0.414665
internal_count=33 18 13 15 10
is_linear=0
shrinkage=0.05


Tree=54
num_leaves=5
num_cat=0
split_feature=13 10 7 11
split_gain=1.42747 0.000102629 1.50421e-05 2.74286e-06
threshold=5.5000000000000009 22.750000000000004 3.5000000000000004 1.0000000180025095e-35
decision_type=2 2 2 2
left_child=1 -1 -2 -3
right_child=2 3 -4 -5
leaf_value=0.053241668584744231 -0.052385884200891332 0.052169445621528088 -0.051866694464261343 0.051917752499572846
leaf_weight=0.31834274157881737 0.25441181287169456 0.27680983021855354 0.30888634361326694 0.17775016650557518
leaf_count=6 6 7 9 5
internal_value=0.00843436 0.0525532 -0.0521012 0.052071
internal_weight=1.3362 0.772903 0.563298 0.45456
internal_count=33 18 15 12
is_linear=0
shrinkage=0.05


Tree=55
num_leaves=7
num_cat=0
split_feature=10 5 2 4 3 2
split_gain=1.04945 0.169188 7.88849e-06 7.17214e-06 5.76184e-07 5.29356e-07
threshold=1.0000000180025095e-35 1.7500000000000002 18.600000000000005 1.5000000000000002 1.0000000180025095e-35 23.650000000000002
decision_type=2 2 2 2 2 2
left_child=1 -1 4 5 -3 -2
right_child=3 2 -4 -5 -6 -7
leaf_value=-0.0046687518542649605 0.051932301284413722 -0.051641178897566919 -0.052111951459670042 0.052236851759908366 -0.05177042259663054 0.051814126823965745
leaf_weight=0.29217702522873878 0.17802482098340988 0.15363490395247936 0.192830890417099 0.20394451543688774 0.19656757637858391 0.20261749625205994
leaf_count=7 5 5 5 5 6 6
internal_value=0.000615536 -0.0353482 -0.0518551 0.0519976 -0.0517137 0.0518694
internal_weight=1.4198 0.83521 0.543033 0.584587 0.350202 0.380642
internal_count=39 23 16 16 11 11
is_linear=0
shrinkage=0.05


Tree=56
num_leaves=7
num_cat=0
split_feature=10 5 2 4 3 2
split_gain=0.989641 0.167214 6.75188e-06 6.13555e-06 4.93664e-07 4.53395e-07
threshold=1.0000000180025095e-35 1.7500000000000002 18.600000000000005 1.5000000000000002 1.0000000180025095e-35 23.650000000000002
decision_type=2 2 2 2 2 2
left_child=1 -1 4 5 -3 -2
right_child=3 2 -4 -5 -6 -7
leaf_value=-0.0044380941501501207 0.051834561638538272 -0.051558586150695244 -0.052004779936121175 0.052123047295177694 -0.051681146918486943 0.051722525552630322
leaf_weight=0.29199870862066746 0.16965370625257492 0.14637024141848087 0.18379487469792366 0.19441090151667595 0.1872957032173872 0.19306844286620617
leaf_count=7 5 5 5 5 6 6
internal_value=0.000609379 -0.0346903 -0.0517614 0.0518964 -0.0516274 0.0517749
internal_weight=1.36659 0.80946 0.517461 0.557133 0.333666 0.362722
internal_count=39 23 16 16 11 11
is_linear=0
shrinkage=0.05


Tree=57
num_leaves=6
num_cat=0
split_feature=10 3 2 0 7
split_gain=0.933187 0.156566 7.39227e-06 2.89446e-06 4.85676e-08
threshold=1.0000000180025095e-35 8.7500000000000018 18.600000000000005 25.500000000000004 4.5000000000000009
decision_type=2 2 2 2 2
left_child=1 2 4 -2 -1
right_child=3 -3 -4 -5 -6
leaf_value=-0.051474145499796869 0.0519254597024063 -0.0057113735156918352 -0.051899278365297077 0.051691431363226986 -0.051513908007042253
leaf_weight=0.16664119809865952 0.24748223088681698 0.3009624257683754 0.1748399194329977 0.2834352869540453 0.14243851043283939
leaf_count=6 7 7 5 9 5
internal_value=0.000603095 -0.0340284 -0.0516394 0.0518005 -0.0514925
internal_weight=1.3158 0.784882 0.48392 0.530918 0.30908
internal_count=39 23 16 16 11
is_linear=0
shrinkage=0.05


Tree=58
num_leaves=7
num_cat=0
split_feature=13 0 4 3 1 0
split_gain=1.36514 0.00011122 4.94787e-06 3.80816e-06 3.83087e-06 1.2319e-08
threshold=5.5000000000000009 3.8500000000000001 1.5000000000000002 4.5500000000000007 34.104838709677431 10.350000000000001
decision_type=2 2 2 2 2 2
left_child=1 -1 -3 4 5 -2
right_child=3 2 -4 -5 -6 -7
leaf_value=0.053139785675525533 -0.051419463111885166 0.05157196707314559 0.051913464997119255 -0.05180883683188249 -0.051739540153005636 -0.051440831985884894
leaf_weight=0.19581091590225697 0.13395410776138306 0.26549884863197803 0.17663260921835899 0.20075519010424614 0.15914331935346127 0.135841254144907
leaf_count=4 5 9 5 6 5 5
internal_value=0.00059696 0.0521477 0.0517084 -0.0516291 -0.051545 -0.0514302
internal_weight=1.26764 0.637942 0.442131 0.629694 0.428939 0.269795
internal_count=39 18 14 21 15 10
is_linear=0
shrinkage=0.05


Tree=59
num_leaves=7
num_cat=0
split_feature=13 10 2 0 4 2
split_gain=1.29611 9.81044e-05 5.0615e-06 2.98899e-06 1.74413e-06 3.44222e-07
threshold=5.5000000000000009 22.750000000000004 19.850000000000005 2.5500000000000003 1.0000000180025095e-35 17.850000000000005
decision_type=2 2 2 2 2 2
left_child=1 -1 3 -2 -3 -5
right_child=2 4 -4 5 -6 -7
leaf_value=0.052988540411805785 -0.051637063888177293 0.051506605201345382 -0.051782364770913449 -0.051298894306558207 0.051710679691075893 -0.051410077201711181
leaf_weight=0.18797983229160309 0.15110486000776291 0.19841120392084122 0.16560877114534378 0.12328351475298405 0.22167297452688217 0.15991419181227684
leaf_count=4 5 7 5 5 7 6
internal_value=0.000595534 0.0520391 -0.0515472 -0.0514575 0.0516143 -0.0513617
internal_weight=1.20798 0.608064 0.599911 0.434303 0.420084 0.283198
internal_count=39 18 21 16 14 11
is_linear=0
shrinkage=0.05


Tree=60
num_leaves=7
num_cat=0
split_feature=13 1 3 4 2 0
split_gain=1.30233 6.97461e-05 6.07389e-06 3.76427e-06 1.21106e-06 6.74945e-08
threshold=5.5000000000000009 25.000000000000004 4.5500000000000007 1.5000000000000002 18.250000000000004 30.000000000000004
decision_type=2 2 2 2 2 2
left_child=1 -1 4 5 -2 -3
right_child=2 3 -4 -5 -6 -7
leaf_value=0.052649061503532657 -0.051292537200771753 0.051443073562368047 -0.051698605321936514 0.051724672794870197 -0.051485522826651135 0.051392868467076837
leaf_weight=0.20802113227546215 0.19617765210568905 0.13609620742499828 0.24888413026928902 0.1603675615042448 0.13881834596395493 0.13175112754106522
leaf_count=5 8 5 8 5 5 5
internal_value=0.00241191 0.051898 -0.0515115 0.0515331 -0.0513725 0.0514184
internal_weight=1.22012 0.636236 0.58388 0.428215 0.334996 0.267847
internal_count=41 20 21 15 13 10
is_linear=0
shrinkage=0.05


Tree=61
num_leaves=7
num_cat=0
split_feature=10 0 2 4 3 6
split_gain=0.818798 0.241123 6.50605e-06 2.80041e-06 5.51529e-07 5.19178e-07
threshold=1.0000000180025095e-35 0.80000000000000016 21.200000000000006 1.5000000000000002 3.6500000000000004 -1.0000000180025095e-35
decision_type=2 2 2 2 2 2
left_child=1 -1 4 5 -3 -2
right_child=3 2 -4 -5 -6 -7
leaf_value=0.016626738378213993 0.051455071360846996 -0.051229163838452413 -0.051678663529604575 0.051637758456876161 -0.051357005682659621 0.051328873695715344
leaf_weight=0.176791712641716 0.13677071779966354 0.18699957244098186 0.15375317446887493 0.15279661864042282 0.15371232852339745 0.20167180709540844
leaf_count=4 5 8 5 5 6 8
internal_value=0.00240765 -0.0334899 -0.0514087 0.0514601 -0.0512868 0.0513799
internal_weight=1.1625 0.671257 0.494465 0.491239 0.340712 0.338443
internal_count=41 23 19 18 14 13
is_linear=0
shrinkage=0.05


Tree=62
num_leaves=7
num_cat=0
split_feature=13 1 3 4 2 13
split_gain=1.18352 9.52701e-05 5.51291e-06 2.71014e-06 8.88555e-07 1.2384e-07
threshold=5.5000000000000009 20.000000000000004 4.5500000000000007 1.5000000000000002 18.250000000000004 1.5000000000000002
decision_type=2 2 2 2 2 2
left_child=1 -1 4 5 -2 -3
right_child=2 3 -4 -5 -6 -7
leaf_value=0.052869306067569649 -0.05116657826870713 0.051263497174394296 -0.051563051648409922 0.051555357249081737 -0.051340138253607594 0.051329100322070088
leaf_weight=0.14183169230818748 0.17793167009949684 0.16824190132319927 0.22981356084346771 0.14557108469307423 0.12593927979469299 0.1256721094250679
leaf_count=3 8 7 8 5 5 5
internal_value=0.00238478 0.0517426 -0.0513783 0.0513789 -0.0512385 0.0512915
internal_weight=1.115 0.581317 0.533685 0.439485 0.303871 0.293914
internal_count=41 20 21 17 13 12
is_linear=0
shrinkage=0.05


Tree=63
num_leaves=7
num_cat=0
split_feature=13 1 3 11 1 6
split_gain=1.12403 8.1593e-05 4.7278e-06 9.36452e-07 1.19375e-06 2.23182e-07
threshold=5.5000000000000009 20.000000000000004 4.5500000000000007 1.0000000180025095e-35 61.000000000000007 0.62500000000000011
decision_type=2 2 2 2 2 2
left_child=1 -1 5 4 -3 -2
right_child=2 3 -4 -5 -6 -7
leaf_value=0.052722375946108305 -0.051127734587395328 0.051467175952020265 -0.051484609229051286 0.051202999932117327 0.051261035704965388 -0.051216068305244722
leaf_weight=0.13528096489608288 0.12909261137247086 0.13792236149311066 0.21893008053302765 0.13758081570267677 0.14309635758399963 0.16029887646436691
leaf_count=3 6 5 8 6 6 7
internal_value=0.00238091 0.0516549 -0.0513093 0.0513099 0.0513622 -0.0511767
internal_weight=1.0622 0.55388 0.508322 0.4186 0.281019 0.289391
internal_count=41 20 21 17 11 13
is_linear=0
shrinkage=0.05


Tree=64
num_leaves=6
num_cat=0
split_feature=1 11 3 1 3
split_gain=0.24053 0.208677 0.169882 0.121942 2.63888e-06
threshold=61.000000000000007 1.0000000180025095e-35 13.65 34.104838709677431 4.5500000000000007
decision_type=2 2 2 2 2
left_child=1 2 3 4 -1
right_child=-2 -3 -4 -5 -6
leaf_value=-0.051066647825841742 0.051181824149816618 0.051920157275421298 0.03239990037004728 -0.0040456120889963447 -0.051348699292754464
leaf_weight=0.18376503512263298 0.20204574428498745 0.11713972501456738 0.1255075316876173 0.23224124312400818 0.1511282455176115
leaf_count=9 9 4 4 9 6
internal_value=0.00237724 -0.00979982 -0.0202379 -0.0318867 -0.0511939
internal_weight=1.01183 0.809782 0.692642 0.567135 0.334893
internal_count=41 32 28 24 15
is_linear=0
shrinkage=0.05


Tree=65
num_leaves=7
num_cat=0
split_feature=13 1 1 3 4 3
split_gain=0.943427 5.48376e-05 3.25295e-06 3.25086e-06 1.09787e-06 1.87238e-07
threshold=5.5000000000000009 25.000000000000004 34.104838709677431 11.800000000000002 1.0000000180025095e-35 3.6500000000000004
decision_type=2 2 2 2 2 2
left_child=1 -1 3 5 -3 -2
right_child=2 4 -4 -5 -6 -7
leaf_value=0.052476033221687937 -0.050998282132709696 0.051112390296433732 -0.051403652624604716 -0.051365484637454807 0.051314399035422092 -0.051085308394338586
leaf_weight=0.12315977737307549 0.15317699126899242 0.14842375554144382 0.15338717773556709 0.10335471108555794 0.1229938343167305 0.10361464880406857
leaf_count=3 8 7 6 4 5 5
internal_value=-0.00653873 0.051601 -0.0512108 -0.0511287 0.0512039 -0.0510334
internal_weight=0.908111 0.394577 0.513534 0.360146 0.271418 0.256792
internal_count=38 15 23 17 12 13
is_linear=0
shrinkage=0.05


Tree=66
num_leaves=7
num_cat=0
split_feature=13 1 1 3 10 3
split_gain=0.896177 4.69936e-05 2.79202e-06 2.78798e-06 9.68498e-07 1.6066e-07
threshold=5.5000000000000009 25.000000000000004 34.104838709677431 11.800000000000002 53.20000000000001 3.6500000000000004
decision_type=2 2 2 2 2 2
left_child=1 -1 3 5 -3 -2
right_child=2 4 -4 -5 -6 -7
leaf_value=0.052350098653900036 -0.050948651990238049 0.051233716009040836 -0.051333459166307119 -0.051297120707446867 0.05103961064048701 -0.051031264890694705
leaf_weight=0.11742791160941124 0.14584481902420521 0.13882527686655521 0.14610087499022484 0.098441759124398232 0.1196507029235363 0.098663046956062317
leaf_count=3 8 6 6 4 6 5
internal_value=-0.00653019 0.0515207 -0.0511504 -0.0510724 0.0511439 -0.050982
internal_weight=0.864954 0.375904 0.489051 0.34295 0.258476 0.244508
internal_count=38 15 23 17 12 13
is_linear=0
shrinkage=0.05


Tree=67
num_leaves=7
num_cat=0
split_feature=13 1 2 3 10 2
split_gain=0.851352 4.02807e-05 4.6867e-06 1.68187e-06 8.31059e-07 1.14439e-07
threshold=5.5000000000000009 25.000000000000004 21.200000000000006 8.7500000000000018 53.20000000000001 17.850000000000005
decision_type=2 2 2 2 2 2
left_child=1 -1 3 5 -3 -2
right_child=2 4 -4 -5 -6 -7
leaf_value=0.052230820152796315 -0.050894648402121136 0.051172140943953615 -0.051352912880753734 -0.051182405587294477 0.050987882111749441 -0.050962362695257439
leaf_weight=0.11194953136146069 0.12060151807963848 0.13220957666635513 0.12644361332058907 0.089379843324422836 0.11392782442271709 0.12928301654756069
leaf_count=3 7 6 5 4 6 7
internal_value=-0.00652209 0.0514445 -0.0510931 -0.0509963 0.0510869 -0.0509297
internal_weight=0.823795 0.358087 0.465708 0.339264 0.246137 0.249885
internal_count=38 15 23 18 12 14
is_linear=0
shrinkage=0.05


Tree=68
num_leaves=7
num_cat=0
split_feature=13 1 2 3 10 2
split_gain=0.808822 3.45339e-05 4.02077e-06 1.44328e-06 7.13232e-07 9.82314e-08
threshold=5.5000000000000009 25.000000000000004 21.200000000000006 8.7500000000000018 53.20000000000001 17.850000000000005
decision_type=2 2 2 2 2 2
left_child=1 -1 3 5 -3 -2
right_child=2 4 -4 -5 -6 -7
leaf_value=0.05211781845106022 -0.050850257139652723 0.051113706185611375 -0.05128524226170636 -0.051123435473140737 0.050938776391905333 -0.050914553105290007
leaf_weight=0.10671474970877171 0.11481733527034521 0.12590178661048412 0.12043158523738384 0.085116332396864891 0.10847333632409573 0.12309037521481514
leaf_count=3 7 6 5 4 6 7
internal_value=-0.00651439 0.0513722 -0.0510387 -0.0509467 0.0510327 -0.0508835
internal_weight=0.784546 0.34109 0.443456 0.323024 0.234375 0.237908
internal_count=38 15 23 18 12 14
is_linear=0
shrinkage=0.05


Tree=69
num_leaves=7
num_cat=0
split_feature=13 1 2 3 10 2
split_gain=0.768465 2.96128e-05 3.45003e-06 1.2387e-06 6.12213e-07 8.43303e-08
threshold=5.5000000000000009 25.000000000000004 21.200000000000006 8.7500000000000018 53.20000000000001 17.850000000000005
decision_type=2 2 2 2 2 2
left_child=1 -1 3 5 -3 -2
right_child=2 4 -4 -5 -6 -7
leaf_value=0.052010744362834899 -0.050808105422362006 0.051058245801693852 -0.051221037525031612 -0.051067466891383084 0.050892154618177809 -0.050869161044445568
leaf_weight=0.10171391069889069 0.10930594988167286 0.11988829076290131 0.11469804123044014 0.081051656976342201 0.10327516868710518 0.11718903295695782
leaf_count=3 7 6 5 4 6 7
internal_value=-0.00650709 0.0513037 -0.050987 -0.0508997 0.0509814 -0.0508397
internal_weight=0.747122 0.324877 0.422245 0.307547 0.223163 0.226495
internal_count=38 15 23 18 12 14
is_linear=0
shrinkage=0.05


Tree=70
num_leaves=6
num_cat=0
split_feature=13 10 3 1 4
split_gain=0.754259 6.02602e-05 9.44359e-07 9.74873e-07 5.09211e-07
threshold=5.5000000000000009 1.0000000180025095e-35 4.5500000000000007 34.104838709677431 1.0000000180025095e-35
decision_type=2 2 2 2 2
left_child=1 -1 3 -2 -3
right_child=2 4 -4 -5 -6
leaf_value=0.052289766765170526 -0.050789345515662915 0.050859086748531616 -0.051066413941934043 -0.051017405957641628 0.051010627795618824
leaf_weight=0.12474201247096062 0.09158710204064846 0.13233239855617285 0.17974474094808102 0.095948182046413422 0.095395274460315704
leaf_count=3 6 8 9 5 5
internal_value=-0.000842497 0.0514064 -0.0509845 -0.050906 0.0509226
internal_weight=0.71975 0.35247 0.36728 0.187535 0.227728
internal_count=36 16 20 11 13
is_linear=0
shrinkage=0.05


Tree=71
num_leaves=6
num_cat=0
split_feature=13 10 3 1 4
split_gain=0.716619 5.16272e-05 8.10725e-07 8.37002e-07 4.37183e-07
threshold=5.5000000000000009 1.0000000180025095e-35 4.5500000000000007 34.104838709677431 1.0000000180025095e-35
decision_type=2 2 2 2 2
left_child=1 -1 3 -2 -3
right_child=2 4 -4 -5 -6
leaf_value=0.052173185102036237 -0.050750260754191062 0.050816492930767454 -0.05101337513393002 -0.050966836988953192 0.050960397575492249
leaf_weight=0.11891672015190125 0.087185749784111977 0.12598131783306599 0.17115177027881145 0.091357004828751087 0.090829974971711636
leaf_count=3 6 8 9 5 5
internal_value=-0.00084179 0.051336 -0.0509356 -0.0508611 0.0508768
internal_weight=0.685423 0.335728 0.349695 0.178543 0.216811
internal_count=36 16 20 11 13
is_linear=0
shrinkage=0.05


Tree=72
num_leaves=6
num_cat=0
split_feature=13 10 2 3 4
split_gain=0.680897 4.42414e-05 1.07705e-06 9.51519e-07 3.7541e-07
threshold=5.5000000000000009 1.0000000180025095e-35 21.200000000000006 8.7500000000000018 1.0000000180025095e-35
decision_type=2 2 2 2 2
left_child=1 -1 3 -2 -3
right_child=2 4 -4 -5 -6
leaf_value=0.052062778739282681 -0.050736539574869594 0.05077604407378105 -0.051013450074322966 -0.050948436996850061 0.05091271230729099
leaf_weight=0.11335090920329094 0.12820613384246826 0.11993019375950098 0.11443890072405338 0.09029052872210741 0.086479027755558491
leaf_count=3 9 8 6 5 5
internal_value=-0.000841118 0.0512691 -0.0508892 -0.0508241 0.0508333
internal_weight=0.652696 0.31976 0.332936 0.218497 0.206409
internal_count=36 16 20 14 13
is_linear=0
shrinkage=0.05


Tree=73
num_leaves=6
num_cat=0
split_feature=13 10 2 0 4
split_gain=0.646992 3.79204e-05 9.24781e-07 7.85827e-07 3.22398e-07
threshold=5.5000000000000009 1.0000000180025095e-35 21.200000000000006 2.1000000000000005 1.0000000180025095e-35
decision_type=2 2 2 2 2
left_child=1 -1 3 -2 -3
right_child=2 4 -4 -5 -6
leaf_value=0.051958189641943743 -0.050899415414715626 0.050737627144051306 -0.050963087671435953 -0.050701951763694922 0.050867432177529072
leaf_weight=0.10803427547216415 0.085663123056292534 0.11416532751172781 0.10896250978112221 0.12234021350741386 0.082332775928080082
leaf_count=3 5 8 6 9 5
internal_value=-0.000840479 0.0512057 -0.0508451 -0.0507833 0.050792
internal_weight=0.621498 0.304532 0.316966 0.208003 0.196498
internal_count=36 16 20 14 13
is_linear=0
shrinkage=0.05


Tree=74
num_leaves=6
num_cat=0
split_feature=13 3 2 3 5
split_gain=0.614809 1.80691e-05 7.9412e-07 7.01843e-07 3.70156e-08
threshold=5.5000000000000009 -5.7499999999999991 21.200000000000006 8.7500000000000018 3.2500000000000004
decision_type=2 2 2 2 2
left_child=1 4 3 -2 -1
right_child=2 -3 -4 -5 -6
leaf_value=0.05076930644107145 -0.050665483955021517 0.051534010230926311 -0.050915272005731482 -0.050856646619392022 0.050718355243078661
leaf_weight=0.073446693830192089 0.1161615364253521 0.1473038624972105 0.10374322813004255 0.081844731234014034 0.069261773489415646
leaf_count=5 9 6 6 5 5
internal_value=-0.000839872 0.0511455 -0.0508032 -0.0507445 0.0507446
internal_weight=0.591762 0.290012 0.301749 0.198006 0.142708
internal_count=36 16 20 14 10
is_linear=0
shrinkage=0.05


Tree=75
num_leaves=7
num_cat=0
split_feature=13 10 2 13 3 2
split_gain=0.633115 2.82466e-05 1.17759e-06 5.22875e-07 3.91758e-07 1.08393e-08
threshold=5.5000000000000009 1.0000000180025095e-35 21.200000000000006 1.5000000000000002 4.5500000000000007 17.850000000000005
decision_type=2 2 2 2 2 2
left_child=1 -1 4 -3 5 -2
right_child=2 3 -4 -5 -6 -7
leaf_value=0.051765769084660941 -0.050594051857349692 0.050668837681411782 -0.050869872951423978 0.050826619252432551 -0.050752960559788313 -0.05062296371022728
leaf_weight=0.098138423636555672 0.069543107412755489 0.11661944072693586 0.098769460804760456 0.095512702129781246 0.071845343336462975 0.060726591385900974
leaf_count=3 6 9 6 6 5 5
internal_value=0.000949659 0.0510644 -0.0507284 0.0507399 -0.0506592 -0.0506075
internal_weight=0.611155 0.310271 0.300885 0.212132 0.202115 0.13027
internal_count=40 18 22 15 16 11
is_linear=0
shrinkage=0.05


Tree=76
num_leaves=7
num_cat=0
split_feature=13 13 3 2 3 2
split_gain=0.601696 7.31472e-06 2.57538e-06 1.01147e-06 3.3659e-07 9.31254e-09
threshold=5.5000000000000009 4.5000000000000009 -1.0499999999999998 21.200000000000006 4.5500000000000007 17.850000000000005
decision_type=2 2 2 2 2 2
left_child=1 2 -1 4 5 -2
right_child=3 -3 -4 -5 -6 -7
leaf_value=0.050678810052649806 -0.050564743404749306 0.051337629685661523 0.051062940098092896 -0.050826758592451005 -0.050715717796136921 -0.05059221227842467
leaf_weight=0.11733427364379168 0.06618882529437542 0.10863585211336613 0.069467130117118359 0.094030103646218777 0.068390324711799622 0.057799146510660648
leaf_count=9 6 5 4 6 5 5
internal_value=0.000948614 0.0510114 0.0508217 -0.0506924 -0.0506267 -0.0505775
internal_weight=0.581846 0.295437 0.186801 0.286408 0.192378 0.123988
internal_count=40 18 13 22 16 11
is_linear=0
shrinkage=0.05


Tree=77
num_leaves=7
num_cat=0
split_feature=13 10 1 13 3 3
split_gain=0.571863 2.0821e-05 6.96435e-07 3.8486e-07 2.79189e-07 3.45692e-08
threshold=5.5000000000000009 1.0000000180025095e-35 46.500000000000007 1.5000000000000002 4.5500000000000007 -1.0499999999999998
decision_type=2 2 2 2 2 2
left_child=1 -1 4 -3 5 -2
right_child=2 3 -4 -5 -6 -7
leaf_value=0.051592982327958996 -0.050548732140200572 0.05060433580453854 -0.050807734796139897 0.050746556937100167 -0.050689669183971914 -0.050600200030912118
leaf_weight=0.089125869795680046 0.075035474263131618 0.10563959553837776 0.060533878393471241 0.086532230488955975 0.079326314851641655 0.057723764330148697
leaf_count=3 7 9 4 6 6 5
internal_value=0.000947629 0.0509613 -0.0506581 0.0506684 -0.0506155 -0.0505711
internal_weight=0.553917 0.281298 0.272619 0.192172 0.212086 0.132759
internal_count=40 18 22 15 18 12
is_linear=0
shrinkage=0.05


Tree=78
num_leaves=7
num_cat=0
split_feature=13 10 1 13 3 0
split_gain=0.543531 1.78633e-05 5.98327e-07 3.3058e-07 2.39879e-07 4.09196e-08
threshold=5.5000000000000009 1.0000000180025095e-35 46.500000000000007 1.5000000000000002 4.5500000000000007 12.450000000000001
decision_type=2 2 2 2 2 2
left_child=1 -1 4 -3 5 -2
right_child=2 3 -4 -5 -6 -7
leaf_value=0.051512916068974623 -0.050513152317958977 0.050574518451252819 -0.050767756226362953 0.050709622245755238 -0.050655596451419573 -0.050570121145881587
leaf_weight=0.084907596930861473 0.060256289318203926 0.10054524149745703 0.057625806890428066 0.082370445132255554 0.075507002882659435 0.066096783615648746
leaf_count=3 6 9 4 6 6 6
internal_value=0.000946687 0.0509136 -0.0506257 0.0506354 -0.0505851 -0.050543
internal_weight=0.527309 0.267823 0.259486 0.182916 0.20186 0.126353
internal_count=40 18 22 15 18 12
is_linear=0
shrinkage=0.05


Tree=79
num_leaves=7
num_cat=0
split_feature=13 10 2 13 3 2
split_gain=0.516624 1.53282e-05 6.41976e-07 2.83978e-07 2.13674e-07 5.89145e-09
threshold=5.5000000000000009 1.0000000180025095e-35 21.200000000000006 1.5000000000000002 4.5500000000000007 17.850000000000005
decision_type=2 2 2 2 2 2
left_child=1 -1 4 -3 5 -2
right_child=2 3 -4 -5 -6 -7
leaf_value=0.051436987122587367 -0.05048527413277426 0.050546188673389947 -0.050710044157436407 0.050674538346524911 -0.050614800624053394 -0.050508806479882866
leaf_weight=0.080882817506790161 0.057053793221712112 0.095693844370543957 0.08112298883497715 0.078406068496406078 0.058977441862225533 0.049823201261460781
leaf_count=3 6 9 6 6 5 5
internal_value=0.000945793 0.0508682 -0.0505948 0.050604 -0.0505384 -0.0504962
internal_weight=0.50196 0.254983 0.246977 0.1741 0.165854 0.106877
internal_count=40 18 22 15 16 11
is_linear=0
shrinkage=0.05


Tree=80
num_leaves=6
num_cat=0
split_feature=13 10 2 3 11
split_gain=0.456033 6.20469e-06 3.93749e-07 3.49479e-07 1.41294e-07
threshold=5.5000000000000009 22.750000000000004 21.200000000000006 8.7500000000000018 1.0000000180025095e-35
decision_type=2 2 2 2 2
left_child=1 -1 3 -2 -3
right_child=2 4 -4 -5 -6
leaf_value=0.051086561734019591 -0.05047014305005755 0.050600108526125925 -0.050674955871161588 -0.050638493314799998 0.050502692115298342
leaf_weight=0.086789832450449467 0.082831685431301594 0.080912019126117229 0.077218657359480858 0.049100832082331181 0.068933772854506969
leaf_count=5 9 7 6 4 7
internal_value=0.00320629 0.0507501 -0.0505853 -0.0505328 0.0505553
internal_weight=0.445787 0.236636 0.209151 0.131933 0.149846
internal_count=38 19 19 13 14
is_linear=0
shrinkage=0.05


Tree=81
num_leaves=7
num_cat=0
split_feature=10 6 0 3 11 0
split_gain=0.266819 0.033649 0.00168409 2.74055e-07 1.3315e-07 1.30962e-07
threshold=1.0000000180025095e-35 0.62500000000000011 20.300000000000001 8.7500000000000018 1.0000000180025095e-35 25.500000000000004
decision_type=2 2 2 2 2 2
left_child=1 3 -3 -1 5 -2
right_child=4 2 -4 -5 -6 -7
leaf_value=-0.050447758117412159 0.050617684878521654 -0.01875581328946601 -0.0077051079068070965 -0.050605173269563132 0.05047793482310288 0.050507744520090096
leaf_weight=0.05249984934926033 0.05997716449201107 0.073454350233078003 0.06497209332883358 0.058412755839526653 0.065603182651102543 0.049396947026252747
leaf_count=6 5 6 4 5 7 5
internal_value=0.00320409 -0.0300105 -0.013569 -0.0505307 0.0505343 0.050568
internal_weight=0.424316 0.249339 0.138426 0.110913 0.174977 0.109374
internal_count=38 21 10 11 17 10
is_linear=0
shrinkage=0.05


Tree=82
num_leaves=6
num_cat=0
split_feature=13 0 0 2 3
split_gain=0.418639 2.94133e-06 8.35883e-07 3.71757e-07 2.00296e-07
threshold=5.5000000000000009 25.500000000000004 12.450000000000001 21.200000000000006 4.5500000000000007
decision_type=2 2 2 2 2
left_child=1 2 -1 4 -2
right_child=3 -3 -4 -5 -6
leaf_value=0.050731576876333812 -0.050428105093598907 0.050470655257832731 0.050981035828937316 -0.050629338527860925 -0.050557752434239482
leaf_weight=0.071053336374461651 0.067095217294991016 0.08269226923584938 0.063673081807792187 0.071827537380158901 0.053581913933157921
leaf_count=6 8 9 4 6 5
internal_value=0.00315975 0.0507054 0.0508495 -0.0505393 -0.0504857
internal_weight=0.409923 0.217419 0.134726 0.192505 0.120677
internal_count=38 19 10 19 13
is_linear=0
shrinkage=0.05


Tree=83
num_leaves=6
num_cat=0
split_feature=13 10 2 3 11
split_gain=0.397973 5.14821e-06 3.19501e-07 1.72157e-07 8.96137e-08
threshold=5.5000000000000009 22.750000000000004 21.200000000000006 4.5500000000000007 1.0000000180025095e-35
decision_type=2 2 2 2 2
left_child=1 -1 3 -2 -3
right_child=2 4 -4 -5 -6
leaf_value=0.050991988082304401 -0.050407054237118026 0.050515564030096688 -0.050598287835320721 -0.050530263784738939 0.050431997332581725
leaf_weight=0.077801106497645378 0.063848928082734346 0.069746674969792366 0.068365339189767838 0.0509957205504179 0.059405380859971046
leaf_count=5 8 7 6 5 7
internal_value=0.00315772 0.0506707 -0.0505127 -0.0504618 0.0504771
internal_weight=0.390163 0.206953 0.18321 0.114845 0.129152
internal_count=38 19 19 13 14
is_linear=0
shrinkage=0.05


Tree=84
num_leaves=6
num_cat=0
split_feature=13 10 2 1 11
split_gain=0.378338 4.42639e-06 2.74607e-07 1.05065e-07 7.70349e-08
threshold=5.5000000000000009 22.750000000000004 21.200000000000006 13.500000000000002 1.0000000180025095e-35
decision_type=2 2 2 2 2
left_child=1 -1 3 -2 -3
right_child=2 4 -4 -5 -6
leaf_value=0.050942949048572633 -0.050495425283019216 0.050490173491797991 -0.050568785299988796 -0.05039641847881602 0.050410749809608128
leaf_weight=0.074076145887374878 0.047055566683411598 0.066377611830830574 0.065068104304373264 0.062236007302999496 0.056531363166868687
leaf_count=5 5 7 6 8 7
internal_value=0.00315579 0.0506376 -0.0504875 -0.050439 0.0504536
internal_weight=0.371345 0.196985 0.17436 0.109292 0.122909
internal_count=38 19 19 13 14
is_linear=0
shrinkage=0.05


Tree=85
num_leaves=7
num_cat=0
split_feature=13 13 2 3 12 0
split_gain=0.328987 2.99834e-06 1.33074e-07 1.00508e-07 2.6953e-08 5.0743e-09
threshold=5.5000000000000009 4.5000000000000009 21.200000000000006 4.5500000000000007 1.0000000180025095e-35 10.350000000000001
decision_type=2 2 2 2 2 2
left_child=1 4 3 5 -1 -2
right_child=2 -3 -4 -5 -6 -7
leaf_value=0.050442211713966602 -0.050359924698188487 0.050913118245347104 -0.05050472866576497 -0.050467240877245648 0.050391400686252232 -0.050385168027883911
leaf_weight=0.059980576392263174 0.035408206284046173 0.043461174704134464 0.04879330936819315 0.045148200821131468 0.0462043690495193 0.045476167462766171
leaf_count=7 5 3 5 5 6 6
internal_value=-0.0038545 0.0505633 -0.0504346 -0.0504075 0.0504201 -0.0503741
internal_weight=0.324472 0.149646 0.174826 0.126033 0.106185 0.0808844
internal_count=37 16 21 16 13 11
is_linear=0
shrinkage=0.05


Tree=86
num_leaves=7
num_cat=0
split_feature=13 13 2 3 12 0
split_gain=0.312788 2.5785e-06 1.14387e-07 8.64077e-08 2.31744e-08 4.36225e-09
threshold=5.5000000000000009 4.5000000000000009 21.200000000000006 4.5500000000000007 1.0000000180025095e-35 10.350000000000001
decision_type=2 2 2 2 2 2
left_child=1 4 3 5 -1 -2
right_child=2 -3 -4 -5 -6 -7
leaf_value=0.050420464489125211 -0.05034224862057142 0.050868050022317791 -0.050479874984790132 -0.050444250963410167 0.050372166260315855 -0.050366242165699272
leaf_weight=0.05707927979528904 0.033692855853587389 0.041377253830432892 0.046435905154794455 0.042965375818312168 0.043967315461486578 0.043274113908410072
leaf_count=7 5 3 5 5 6 6
internal_value=-0.00385272 0.0505356 -0.0504132 -0.0503874 0.0503994 -0.0503557
internal_weight=0.308792 0.142424 0.166368 0.119932 0.101047 0.076967
internal_count=37 16 21 16 13 11
is_linear=0
shrinkage=0.05


Tree=87
num_leaves=6
num_cat=0
split_feature=13 13 7 4 11
split_gain=0.297393 2.21748e-06 6.51955e-08 6.57741e-08 1.99251e-08
threshold=5.5000000000000009 4.5000000000000009 4.5000000000000009 2.5000000000000004 1.0000000180025095e-35
decision_type=2 2 2 2 2
left_child=1 4 3 -2 -1
right_child=2 -3 -4 -5 -6
leaf_value=0.050399794546350574 -0.05037761556638131 0.050825225175808612 -0.050343855342467971 -0.050454759433872433 0.050353884969149845
leaf_weight=0.05431719496846199 0.058729293756186962 0.039391587488353252 0.047406995203346014 0.052180271130055189 0.041837805416435003
leaf_count=7 8 3 7 6 6
internal_value=-0.00385104 0.0505093 -0.0503929 -0.0504139 0.0503798
internal_weight=0.293863 0.135547 0.158317 0.11091 0.096155
internal_count=37 16 21 14 13
is_linear=0
shrinkage=0.05


Tree=88
num_leaves=7
num_cat=0
split_feature=13 13 2 3 11 0
split_gain=0.282763 1.90712e-06 8.45891e-08 6.38834e-08 1.71354e-08 3.22692e-09
threshold=5.5000000000000009 4.5000000000000009 21.200000000000006 4.5500000000000007 1.0000000180025095e-35 10.350000000000001
decision_type=2 2 2 2 2 2
left_child=1 4 3 5 -1 -2
right_child=2 -3 -4 -5 -6 -7
leaf_value=0.050380150716665233 -0.050309461477614704 0.050784541262204198 -0.050433831575025158 -0.050401633728698707 0.050336506215840716 -0.050331149120688513
leaf_weight=0.051687754224985838 0.030504535883665085 0.037499698810279369 0.042056200560182333 0.038908727467060089 0.03981074457988143 0.039182165171951056
leaf_count=7 5 3 5 5 6 6
internal_value=-0.00384943 0.0504842 -0.0503736 -0.0503503 0.0503612 -0.0503217
internal_weight=0.27965 0.128998 0.150652 0.108595 0.0914985 0.0696867
internal_count=37 16 21 16 13 11
is_linear=0
shrinkage=0.05


Tree=89
num_leaves=6
num_cat=0
split_feature=13 13 7 4 11
split_gain=0.268858 1.64025e-06 4.82078e-08 4.86451e-08 1.4734e-08
threshold=5.5000000000000009 4.5000000000000009 4.5000000000000009 2.5000000000000004 1.0000000180025095e-35
decision_type=2 2 2 2 2
left_child=1 4 3 -2 -1
right_child=2 -3 -4 -5 -6
leaf_value=0.050361476100008122 -0.050341426265776416 0.050745880002005389 -0.050310922367637581 -0.05041114323682655 0.050319987577535807
leaf_weight=0.049184683710336685 0.053176569286733866 0.035697306506335735 0.042922749649733305 0.047255855984985828 0.037881270051002502
leaf_count=7 8 3 7 6 6
internal_value=-0.00384791 0.0504605 -0.0503553 -0.0503742 0.0503434
internal_weight=0.266118 0.122763 0.143355 0.100432 0.087066
internal_count=37 16 21 14 13
is_linear=0
shrinkage=0.05


Tree=90
num_leaves=8
num_cat=0
split_feature=10 0 4 2 4 12 5
split_gain=0.139915 0.0284756 0.0378937 6.19381e-08 4.71333e-08 1.10447e-08 4.68214e-09
threshold=1.0000000180025095e-35 0.80000000000000016 1.0000000180025095e-35 19.150000000000002 1.5000000000000002 1.0000000180025095e-35 3.2500000000000004
decision_type=2 2 2 2 2 2 2
left_child=1 -1 -3 6 5 -2 -4
right_child=4 2 3 -5 -6 -7 -8
leaf_value=0.007757450891849974 0.050340464106512772 0.01497199260805279 -0.050284411930225162 -0.050381866174461012 0.050389158772277988 0.050300450444265676 -0.050312711855111748
leaf_weight=0.056153935380280018 0.033432465977966785 0.028950834646821022 0.028037069365382195 0.036905432119965553 0.037999808788299561 0.03561896737664938 0.030531152617186308
leaf_count=5 5 2 5 5 5 6 5
internal_value=0.00505233 -0.0217979 -0.0351365 -0.0503311 0.0503444 0.0503198 -0.0502992
internal_weight=0.28763 0.180578 0.124424 0.0954737 0.107051 0.0690514 0.0585682
internal_count=38 22 17 15 16 11 10
is_linear=0
shrinkage=0.05


Tree=91
num_leaves=8
num_cat=0
split_feature=13 13 3 2 3 11 5
split_gain=0.279772 1.2512e-06 4.76343e-07 1.31337e-07 8.37726e-08 1.57284e-08 2.55339e-10
threshold=5.5000000000000009 4.5000000000000009 -1.0499999999999998 22.112096774193549 8.7500000000000018 1.0000000180025095e-35 3.2500000000000004
decision_type=2 2 2 2 2 2 2
left_child=1 2 5 4 6 -1 -2
right_child=3 -3 -4 -5 -6 -7 -8
leaf_value=0.050339671241425327 -0.050277812215200723 0.050697193319391036 0.050547500587393351 -0.050435905401107643 -0.05037872324695624 0.050289031132618504 -0.050284609077848014
leaf_weight=0.033131103031337261 0.027258006390184164 0.055778468027710915 0.034845630638301373 0.033389231190085411 0.036670942325145006 0.028543412219733 0.028023865539580584
leaf_count=5 5 5 4 4 5 5 5
internal_value=0.00497516 0.0505087 0.0503997 -0.050351 -0.0503201 0.0503162 -0.0502813
internal_weight=0.277641 0.152299 0.0965201 0.125342 0.0919528 0.0616745 0.0552819
internal_count=38 19 14 19 15 10 10
is_linear=0
shrinkage=0.05


Tree=92
num_leaves=7
num_cat=0
split_feature=13 10 2 0 4 11
split_gain=0.266011 3.47234e-06 1.1293e-07 5.28651e-08 3.48533e-08 8.15287e-09
threshold=5.5000000000000009 1.0000000180025095e-35 22.112096774193549 2.5500000000000003 1.5000000000000002 1.0000000180025095e-35
decision_type=2 2 2 2 2 2
left_child=1 -1 3 -2 5 -3
right_child=2 4 -4 -5 -6 -7
leaf_value=0.050831342267775172 -0.05034684320765638 0.050307806358834133 -0.050414473835969767 -0.050268813780862377 0.050351829258643822 0.050271673695915169
leaf_weight=0.04802553728222847 0.039923870004713535 0.030265089124441147 0.031773979775607586 0.04757097689434886 0.034405708778649569 0.032244467176496983
leaf_count=3 6 5 4 9 5 6
internal_value=0.00497295 0.0504837 -0.0503337 -0.0503044 0.0503114 0.0502892
internal_weight=0.26421 0.144941 0.119269 0.0874948 0.0969153 0.0625096
internal_count=38 19 19 15 16 11
is_linear=0
shrinkage=0.05


Tree=93
num_leaves=8
num_cat=0
split_feature=13 10 0 0 4 11 4
split_gain=0.252933 2.9838e-06 7.39957e-08 7.77132e-08 2.99703e-08 7.01032e-09 2.13372e-09
threshold=5.5000000000000009 1.0000000180025095e-35 18.350000000000005 2.1000000000000005 1.5000000000000002 1.0000000180025095e-35 1.5000000000000002
decision_type=2 2 2 2 2 2 2
left_child=1 -1 3 -2 5 -3 -5
right_child=2 4 -4 6 -6 -7 -8
leaf_value=0.050790148153248699 -0.050351433917602599 0.05029270434171397 -0.050386120296466365 -0.050263728350547279 0.050334554371231938 0.050258355591007269 -0.05024304274087741
leaf_weight=0.045719423331320286 0.03444302175194025 0.028797470033168793 0.02909488370642066 0.026002277154475451 0.032738671638071537 0.030679808929562569 0.023947833105921745
leaf_count=3 5 5 4 5 5 6 5
internal_value=0.00497084 0.0504599 -0.0503174 -0.0502937 0.0502961 0.050275 -0.0502538
internal_weight=0.251423 0.137935 0.113488 0.0843931 0.092216 0.0594773 0.0499501
internal_count=38 19 19 15 16 11 10
is_linear=0
shrinkage=0.05


Tree=94
num_leaves=8
num_cat=0
split_feature=13 10 2 3 4 11 5
split_gain=0.240502 2.56419e-06 8.352e-08 5.32918e-08 2.57729e-08 6.02938e-09 1.62108e-10
threshold=5.5000000000000009 1.0000000180025095e-35 22.112096774193549 8.7500000000000018 1.5000000000000002 1.0000000180025095e-35 3.2500000000000004
decision_type=2 2 2 2 2 2 2
left_child=1 -1 3 6 5 -3 -2
right_child=2 4 -4 -5 -6 -7 -8
leaf_value=0.05075102353307457 -0.050238921386139973 0.050278347779690008 -0.050374749322982373 -0.050325632559525706 0.050318131949318091 0.050245690599799199 -0.050244756717245743
leaf_weight=0.043522341176867485 0.023478318005800247 0.02740062540397048 0.028772824909538031 0.031596377957612276 0.031151894945651293 0.029190707020461559 0.024138191249221563
leaf_count=3 5 5 4 5 5 6 5
internal_value=0.00496883 0.0504372 -0.0503018 -0.0502753 0.0502816 0.0502615 -0.0502419
internal_weight=0.239251 0.131266 0.107986 0.0792129 0.0877432 0.0565913 0.0476165
internal_count=38 19 19 15 16 11 10
is_linear=0
shrinkage=0.05


Tree=95
num_leaves=6
num_cat=0
split_feature=13 13 1 1 6
split_gain=0.196236 1.11206e-06 1.5353e-08 2.9936e-08 8.34352e-09
threshold=5.5000000000000009 4.5000000000000009 34.104838709677431 13.500000000000002 0.62500000000000011
decision_type=2 2 2 2 2
left_child=1 4 3 -2 -1
right_child=2 -3 -4 -5 -6
leaf_value=0.050247227756227503 -0.050292681930962785 0.050609428098710697 -0.050296439366089865 -0.050225136187516541 0.050285514810813683
leaf_weight=0.029262735042721033 0.027781982440501451 0.040151653811335564 0.028675129637122154 0.040051396004855633 0.027697743847966194
leaf_count=6 5 4 5 9 5
internal_value=0.000227996 0.0504079 -0.0502658 -0.0502528 0.0502658
internal_weight=0.193621 0.0971121 0.0965085 0.0678334 0.0569605
internal_count=34 15 19 14 11
is_linear=0
shrinkage=0.05


Tree=96
num_leaves=6
num_cat=0
split_feature=13 13 4 6 2
split_gain=0.186603 9.56339e-07 2.89403e-08 7.17617e-09 3.32427e-09
threshold=5.5000000000000009 4.5000000000000009 2.5000000000000004 0.62500000000000011 18.250000000000004
decision_type=2 2 2 2 2
left_child=1 3 4 -1 -2
right_child=2 -3 -4 -5 -6
leaf_value=0.050235112625092088 -0.050213880995925497 0.050579428221484063 -0.050282690069124274 0.050271514675830721 -0.050239977172888854
leaf_weight=0.02784211840480566 0.025373066077008843 0.038215516600757837 0.042940231272950768 0.026354060973972082 0.023511631414294243
leaf_count=6 6 4 8 5 5
internal_value=0.000227833 0.0503879 -0.0502527 0.0502528 -0.0502264
internal_weight=0.184237 0.0924117 0.0918249 0.0541962 0.0488847
internal_count=34 15 19 11 11
is_linear=0
shrinkage=0.05


Tree=97
num_leaves=6
num_cat=0
split_feature=13 13 4 6 2
split_gain=0.177445 8.22468e-07 2.48946e-08 6.1731e-09 2.85993e-09
threshold=5.5000000000000009 4.5000000000000009 2.5000000000000004 0.62500000000000011 18.250000000000004
decision_type=2 2 2 2 2
left_child=1 3 4 -1 -2
right_child=2 -3 -4 -5 -6
leaf_value=0.050223593380258696 -0.050203405143846039 0.050550919802371877 -0.050268832367061193 0.050258206125704599 -0.050228220269907822
leaf_weight=0.026490163989365101 0.024140516063198447 0.036371707916259766 0.040856988169252872 0.025075229350477457 0.022370058577507734
leaf_count=6 6 4 8 5 5
internal_value=0.000227679 0.0503688 -0.0502404 0.0502404 -0.0502153
internal_weight=0.175305 0.0879371 0.0873676 0.0515654 0.0465106
internal_count=34 15 19 11 11
is_linear=0
shrinkage=0.05


Tree=98
num_leaves=6
num_cat=0
split_feature=13 13 4 6 2
split_gain=0.16874 7.07364e-07 2.14152e-08 5.30966e-09 2.45937e-09
threshold=5.5000000000000009 4.5000000000000009 2.5000000000000004 0.62500000000000011 18.250000000000004
decision_type=2 2 2 2 2
left_child=1 3 4 -1 -2
right_child=2 -3 -4 -5 -6
leaf_value=0.050212642105363081 -0.050193447960644316 0.050523825690182211 -0.050255658338682896 0.050245551914367831 -0.050217039883255869
leaf_weight=0.025203580036759377 0.022967610042542219 0.034615925047546625 0.038874300196766853 0.023858151631429791 0.021283675916492939
leaf_count=6 6 4 8 5 5
internal_value=0.000227532 0.0503508 -0.0502286 0.0502286 -0.0502048
internal_weight=0.166803 0.0836777 0.0831256 0.0490617 0.0442513
internal_count=34 15 19 11 11
is_linear=0
shrinkage=0.05


Tree=99
num_leaves=6
num_cat=0
split_feature=13 13 4 13 2
split_gain=0.160464 6.08392e-07 1.84205e-08 3.40163e-09 2.11593e-09
threshold=5.5000000000000009 4.5000000000000009 2.5000000000000004 1.5000000000000002 18.250000000000004
decision_type=2 2 2 2 2
left_child=1 3 4 -1 -2
right_child=2 -3 -4 -5 -6
leaf_value=0.050204429448469971 -0.050183977513815696 0.050498073991114223 -0.050243129892717453 0.050231442169966146 -0.050206412067386366
leaf_weight=0.024186525726690888 0.021851485362276435 0.032944054342806339 0.036987366154789925 0.022492583375424147 0.0202498366124928
leaf_count=6 6 4 8 5 5
internal_value=0.000227392 0.0503336 -0.0502174 0.0502174 -0.0501948
internal_weight=0.158712 0.0796232 0.0790887 0.0466791 0.0421013
internal_count=34 15 19 11 11
is_linear=0
shrinkage=0.05


end of trees

feature_importances:
recovery_status=111
market_volatility_90d=97
market_momentum_3m=69
recovery_level_pct=60
market_price_stress_pct=44
market_risk_score=39
market_risk_level=38
recovery_months=20
macro_policy_rate=12
macro_rate_change_12m=12
macro_rate_cycle=9
full_recovery=4
macro_credit_stress_score=3

parameters:
[boosting: gbdt]
[objective: binary]
[metric: binary_logloss]
[tree_learner: serial]
[device_type: cpu]
[data_sample_strategy: bagging]
[data: ]
[valid: ]
[num_iterations: 100]
[learning_rate: 0.05]
[num_leaves: 15]
[num_threads: 0]
[seed: 42]
[deterministic: 0]
[force_col_wise: 0]
[force_row_wise: 0]
[histogram_pool_size: -1]
[max_depth: -1]
[min_data_in_leaf: 5]
[min_sum_hessian_in_leaf: 0.001]
[bagging_fraction: 0.8]
[pos_bagging_fraction: 1]
[neg_bagging_fraction: 1]
[bagging_freq: 5]
[bagging_seed: 400]
[bagging_by_query: 0]
[feature_fraction: 0.8]
[feature_fraction_bynode: 1]
[feature_fraction_seed: 30056]
[extra_trees: 0]
[extra_seed: 12879]
[early_stopping_round: 0]
[early_stopping_min_delta: 0]
[first_metric_only: 0]
[max_delta_step: 0]
[lambda_l1: 0]
[lambda_l2: 0]
[linear_lambda: 0]
[min_gain_to_split: 0]
[drop_rate: 0.1]
[max_drop: 50]
[skip_drop: 0.5]
[xgboost_dart_mode: 0]
[uniform_drop: 0]
[drop_seed: 17869]
[top_rate: 0.2]
[other_rate: 0.1]
[min_data_per_group: 100]
[max_cat_threshold: 32]
[cat_l2: 10]
[cat_smooth: 10]
[max_cat_to_onehot: 4]
[top_k: 20]
[monotone_constraints: ]
[monotone_constraints_method: basic]
[monotone_penalty: 0]
[feature_contri: ]
[forcedsplits_filename: ]
[refit_decay_rate: 0.9]
[cegb_tradeoff: 1]
[cegb_penalty_split: 0]
[cegb_penalty_feature_lazy: ]
[cegb_penalty_feature_coupled: ]
[path_smooth: 0]
[interaction_constraints: ]
[verbosity: -1]
[saved_feature_importance_type: 0]
[use_quantized_grad: 0]
[num_grad_quant_bins: 4]
[quant_train_renew_leaf: 0]
[stochastic_rounding: 1]
[linear_tree: 0]
[max_bin: 255]
[max_bin_by_feature: ]
[min_data_in_bin: 3]
[bin_construct_sample_cnt: 200000]
[data_random_seed: 175]
[is_enable_sparse: 1]
[enable_bundle: 1]
[use_missing: 1]
[zero_as_missing: 0]
[feature_pre_filter: 1]
[pre_partition: 0]
[two_round: 0]
[header: 0]
[label_column: ]
[weight_column: ]
[group_column: ]
[ignore_column: ]
[categorical_feature: ]
[forcedbins_filename: ]
[precise_float_parser: 0]
[parser_config_file: ]
[objective_seed: 16083]
[num_class: 1]
[is_unbalance: 0]
[scale_pos_weight: 1]
[sigmoid: 1]
[boost_from_average: 1]
[reg_sqrt: 0]
[alpha: 0.9]
[fair_c: 1]
[poisson_max_delta_step: 0.7]
[tweedie_variance_power: 1.5]
[lambdarank_truncation_level: 30]
[lambdarank_norm: 1]
[label_gain: ]
[lambdarank_position_bias_regularization: 0]
[eval_at: ]
[multi_error_top_k: 1]
[auc_mu_weights: ]
[num_machines: 1]
[local_listen_port: 12400]
[time_out: 120]
[machine_list_filename: ]
[machines: ]
[gpu_platform_id: -1]
[gpu_device_id: -1]
[gpu_use_dp: 0]
[num_gpu: 1]

end of parameters

pandas_categorical:[]
